3315 100
the 0.24567859 0.30927876 -0.16013853 0.17075893 -0.3564059 0.14139815 0.35679013 -0.23333861 0.13608612 0.47897944 -0.16776663 0.1245601 0.26402625 0.036201593 0.16475421 -0.1194067 0.19990516 -0.18379988 -0.08564926 -0.12412226 -0.1450837 -0.24384893 -0.23984116 -0.3580407 0.078673914 0.028482614 -0.05676655 0.17030133 0.081730306 0.16495697 -0.21783845 0.29539973 -0.29437664 -0.27677226 -0.20379642 -0.26355794 0.2643366 -0.26316467 -0.08357835 -0.22320586 -0.09637276 -0.14525518 0.11832187 0.30776262 0.036087867 0.19701435 0.3004461 -0.16020532 0.18195793 0.20795363 -0.19427125 0.16017258 -0.36510968 0.19770786 -0.124026865 0.20616785 -0.18556426 -0.18135503 0.1977917 0.20834225 -0.30381945 0.19557458 0.24842404 -0.14775601 0.23224045 0.22996259 0.2236028 0.33602282 0.21251044 -0.21397784 0.14921033 0.23783144 0.28542915 0.093459636 0.082186 -0.38073018 -0.20165446 -0.20607758 0.37976465 0.20018673 -0.22272168 0.16493064 0.14194606 0.14987482 0.24200828 0.05836343 0.27979568 -0.2688445 -0.40814766 -0.017104998 -0.12603897 0.2528324 0.04804787 -0.22099556 0.07317289 -0.19259079 -0.18231866 -0.098924905 0.07997664 0.14828853
and -0.39246663 -0.2494509 0.07001661 0.10448061 -0.076939195 -0.0772783 0.15121166 -0.083670296 -0.14135343 -0.26506007 0.25667867 -0.15962726 -0.30272728 0.31974524 -0.0653205 -0.12739342 -0.16994196 0.2066222 0.20389941 0.36956197 0.12460345 0.31250387 0.19706717 0.15480328 -0.18335257 -0.20069884 -0.13895364 -0.20113467 0.038041923 -0.3049675 -0.41872957 -0.21372609 -0.11887383 0.09768094 0.17234288 -0.03977033 -0.36425745 0.2349707 -0.2254314 -0.33193165 0.32924587 0.095934324 -0.21038017 0.036763616 0.16720358 -0.07569303 -0.3340583 0.16430904 -0.09538536 -0.15742783 0.27782416 -0.11989834 0.12950025 -0.07438459 0.2054187 -0.09106011 -0.10016048 0.25785464 -0.16936089 -0.14439343 -0.03512844 -0.13392861 -0.07742886 -0.19136956 -0.04222551 -0.16896214 -0.5191749 -0.10823766 -0.05986469 0.10324139 -0.012665433 -0.35596853 0.097766034 0.08901128 0.26474774 -0.056654267 0.21830101 0.47360915 0.065167174 -0.12103848 0.29030648 -0.049171023 -0.09547726 -0.17003204 0.1037263 -0.04739233 -0.12079383 0.2925333 0.13454673 -0.22403122 -0.022127435 -0.23690487 -0.16634785 0.50752604 0.12097369 -0.020148473 0.09697573 -0.1322555 0.021765795 -0.19435163
of -0.26217863 -0.13494445 0.057797708 -0.13777761 -0.3402143 -0.14640158 0.12699018 -0.16511843 -0.34159067 -0.47199485 0.27531686 -0.11857932 0.06722569 0.2302701 -0.31960046 -0.22121982 -0.25970015 0.18841305 0.19105461 0.38352725 0.08511105 0.37201533 0.36136448 0.122008085 0.033494078 0.0294337 0.40518647 -0.30033714 -0.07970505 -0.2749559 -0.51354206 -0.03458605 0.004207615 0.13498755 -0.03769385 0.15010352 -0.041730467 0.2976405 -0.15189596 -0.13874578 0.23326103 -0.1036618 -0.17872125 0.38243493 0.07025416 -0.21268904 -0.37527204 -0.06625497 -0.30163103 -0.41633743 0.04707329 0.046265703 0.1251745 -0.11320819 0.43580022 0.31641507 -0.5670891 -0.37138385 0.15637499 0.1385006 -0.029958805 -0.083472736 0.07072085 0.071644 0.18998817 -0.061336275 -0.4520582 -0.33959088 -0.17055477 -0.047512464 -0.1994332 -0.01089591 0.13838927 0.15514152 0.078200765 -0.2611641 0.008795106 -0.16161269 0.060367703 -0.22078879 -0.18236363 -0.030399583 -0.29446983 -0.28797 0.14810424 -0.097020894 0.18498883 -0.19426665 -0.14838274 -0.29443473 -0.20939393 -0.15662988 0.039870653 0.55842286 0.28833005 -0.13430713 0.102033675 0.0076269023 0.072133735 -0.092238545
i -0.1106768 0.23722917 0.10899995 0.08989321 0.24368665 -0.2924064 -0.4022941 0.18043257 -0.22781199 0.116467275 0.055274893 0.1505658 -0.2390207 -0.15886708 0.097741105 0.26512706 -0.38012084 -0.2300542 -0.26982218 -0.1298426 0.27058747 -0.14100184 -0.12465938 0.23480791 -0.22974814 -0.04777459 -0.24647385 0.4402191 -0.06589638 -0.30306914 0.4548945 -0.22572121 0.2602045 0.1961668 -0.02653912 0.26368877 -0.30831122 -0.16481045 0.22438242 0.6269063 -0.299989 0.02006507 0.41309065 -0.3446639 -0.29841447 -0.17230363 0.3219677 0.3446057 -0.18901151 -0.14878532 0.34474534 -0.24271522 0.39893344 -0.2128702 0.100133784 -0.3454914 0.4250425 0.5278354 0.17466494 -0.19601147 0.18142915 -0.15964599 -0.19232607 -0.09129025 -0.15791756 -0.06791546 -0.2738172 0.09656958 -0.20771776 0.13394362 -0.19794618 0.5579841 -0.34015477 -0.050655596 -0.19835606 0.41324687 -0.033220273 -0.072222635 -0.16304782 -0.1328304 -0.33592993 -0.1105086 -0.2386279 -0.07615157 -0.4963395 0.17217109 -0.43957615 0.11044661 0.7623756 0.27171764 0.079898424 0.2529252 -0.20519549 0.3559884 -0.4951211 0.12777203 0.24540138 0.21913709 0.068045795 -0.18668908
to -0.20112024 -0.03213415 0.1238455 -0.09630617 -0.06052095 -0.13514388 0.072273225 0.06168368 -0.1636379 -0.42774332 0.3044806 -0.2125267 -0.08362464 0.27394965 -0.09404216 -0.18950213 -0.11880235 -0.12435524 0.4320003 0.24949665 0.031301662 0.41671994 0.2933412 0.38449067 -0.15198964 0.029238112 0.1849887 -0.27923438 -0.05905413 -0.2815702 0.572328 -0.07242502 -0.04782718 0.017541334 0.118490316 0.058471803 -0.12375808 -0.18639603 -0.37802002 0.6444742 -0.34429285 0.13027173 -0.22201914 0.13882205 0.17257589 0.05947293 -0.14304256 0.03449901 -0.3816425 -0.14437568 -0.32969606 -0.21156833 0.22862343 -0.17176422 0.23106076 -0.18017033 -0.24356477 -0.24549694 0.08900905 0.055474814 0.0041586794 -0.09422559 -0.3778605 -0.11106769 -0.09961916 -0.28017 -0.16691434 -0.25556946 -0.0505858 0.2098183 0.112682536 -0.4969269 0.06168319 -0.1462231 0.17964295 -0.12493261 0.24506812 0.40282306 -0.026720919 -0.040941842 0.2521763 -0.15800995 -0.04413489 -0.1479144 0.15717281 0.10823672 -0.34302026 -0.031995542 0.39567766 -0.06775544 -0.12071531 -0.15391101 0.04953583 0.36202413 0.17126441 0.012700622 0.12155321 -0.011600579 -0.21217091 -0.17426105
a 0.33619377 -0.16117081 -0.030635487 -0.1965071 -0.23377219 -0.0040008035 0.15726353 0.08220624 0.06441018 0.13208199 -0.21393146 0.12067792 -0.07216554 0.08967414 -0.058769803 -0.12006245 0.06474371 -0.25472212 0.054034837 -0.10730155 0.1017578 -0.1649057 -0.1491679 -0.2508075 0.10892628 0.012204665 -0.16374043 0.030593323 0.10505009 0.26245242 -0.1848889 0.048122305 -0.08492127 -0.043255515 -0.28634363 0.08441787 0.251529 -0.17710163 -0.19175762 0.32422423 0.12933633 -0.023410844 0.15052558 -0.34539893 0.15931588 0.1938735 0.03811229 -0.02925377 -0.06382487 0.16971046 -0.17193775 0.080739796 -0.118761785 -0.12591855 -0.043279942 -0.11045737 -0.15476987 0.24319813 -0.09584147 -0.053393457 0.10156 0.0061854697 0.2080046 0.03256735 0.19158156 -0.10956239 0.18394043 -0.069132574 -0.023027454 -0.071785614 -0.14353015 0.056783024 -0.08160665 -0.051033676 -0.073411696 -0.2568007 -0.11755956 -0.16485775 -0.10964425 0.06588243 -0.26532155 -0.02331956 0.082435586 0.004862827 0.08872215 0.03412075 -0.22599334 0.017768936 -0.03446805 0.057538357 0.19458231 0.019656414 -0.11249658 -0.24940798 0.25531453 0.21476255 -0.18385613 -0.059193335 0.1496962 -0.056159403
was 0.114505135 0.17132981 -0.18997341 -0.1258436 0.13909763 -0.09202127 0.136242 -0.062112033 -0.15905151 -0.10417582 -4.7810725e-05 -0.24355993 -0.053917017 -0.27116826 -0.18539575 -0.039537054 -0.34375712 0.023649162 0.14198518 0.02831405 0.30553588 0.081919946 0.204711 0.14306988 -0.2865958 -0.14063363 -0.0736405 -0.26365718 0.02571333 -0.0758001 -0.05659284 -0.5182412 0.102397084 0.041561615 0.049080875 0.11653072 -0.35207903 0.14521685 0.095422104 0.4278651 0.38779548 -0.08360826 -0.41034305 -0.24797006 -0.17541547 0.033778433 -0.37520978 0.20798782 -0.21169817 -0.114343345 0.17288256 -0.05190204 0.22559953 -0.10315794 -0.2077907 -0.11264131 0.07196786 -0.40524262 -0.008903316 0.17904213 -0.087503515 -0.07121452 -0.089381985 0.04411821 -0.19570331 0.1702205 -0.286829 -0.049018804 -0.01743108 0.23518692 0.124541976 -0.37651232 -0.25243458 -0.1373918 -0.15099598 0.30505878 -0.013374041 0.36301506 -0.15670086 0.006572591 0.24022162 -0.11868175 0.030441577 -0.24595265 -0.33785498 0.16049688 -0.23529506 -0.12493208 0.21996494 0.19657017 -0.021979926 -0.4704607 -0.07952884 0.06819481 0.21630745 0.049979795 0.12611707 0.16204381 -0.0129553545 0.14425588
in -0.06271062 0.03479606 0.058985457 0.2111775 -0.071657054 -0.114953764 0.16942249 -0.023862667 -0.2192979 -0.18397959 0.18561809 -0.09026994 -0.04957348 -0.0033049728 -0.30771065 -0.10346832 -0.13099346 -0.017378788 0.11341828 0.23757786 0.11084375 0.19263053 0.16523968 0.08640246 -0.08167537 -0.100190744 0.19168863 -0.17383586 -0.051306516 -0.13347474 -0.15750615 0.100554414 -0.16486385 0.077456415 0.14186051 0.27177384 -0.012547478 0.06535992 -0.084631704 -0.02948039 0.13795933 -0.14223845 -0.18495806 0.149518 -0.1467857 -0.04044431 -0.23286933 0.19915885 -0.31999677 -0.11544972 -0.098406166 -0.15682653 -0.10239749 -0.13691162 0.20558192 -0.103454225 -0.010900909 -0.15475947 0.11028318 0.081972614 0.036889605 -0.24326138 0.221427 -0.062958784 0.028290024 -0.031124555 -0.20782962 -0.24132147 -0.016397355 -0.047627736 -0.017803948 0.072439305 0.19586833 -0.14637135 -0.037286006 -0.264199 0.0017903976 -0.014795114 0.04981071 0.09435632 -0.022435432 0.046796817 -0.28732964 -0.11381992 0.039137207 0.04517083 0.15927407 -0.07525387 -0.0131669 -0.23408556 -0.20889893 -0.18903492 0.08329236 0.26053068 0.14236791 -0.15583336 0.031292208 0.064098224 -0.15848503 -0.15963471
that -0.019823408 -0.16433772 0.092417 -0.058910932 0.15861358 0.044984557 -0.02469116 0.14964065 -0.04824449 -0.15362115 0.19910377 0.07701441 -0.2180481 0.29060677 -0.0018074319 -0.15515184 -0.05097046 0.16169508 0.025604123 -0.07443795 -0.07824609 0.22324301 0.112455666 0.13767275 -0.12552047 -0.10280878 -0.017323876 -0.040759116 0.16289257 -0.032746404 0.12201731 -0.3287388 0.1354774 0.09616593 -0.23983642 -0.15939772 -0.22771508 0.21105035 0.088274345 -0.061814323 -0.0002240818 0.052330054 -0.16672839 -0.32215667 -0.033615444 0.081847586 -0.22597836 0.13349926 -0.15477934 -0.020727731 0.015915854 -0.20565787 0.29634032 0.08833707 0.0725352 -0.057315245 0.03274401 0.44713658 -0.20839465 -0.056541637 0.03147163 -0.059792507 -0.14915128 -0.050322235 -0.26939598 -0.07278021 -0.17337127 0.14519346 -0.1752783 0.09847554 0.0031241877 -0.17493594 0.04824475 0.19614346 0.18568522 0.15443353 0.041124836 0.18716457 0.10666595 0.1103487 -0.1516243 -0.20057851 0.01661471 -0.01808464 -0.15465508 0.017047325 -0.17931008 0.19390154 0.3673117 -0.086356714 0.12033318 -0.25184554 -0.1808709 0.23970897 -0.18351957 0.1897112 0.14935923 -0.14067645 0.0404338 -0.18501821
had 0.08351065 -0.004947464 -0.17112376 -0.091256075 0.70718575 -0.14994445 0.04042492 -0.12386227 -0.11115811 -0.18079588 0.16076638 -0.29531816 -0.077156216 -0.36940274 0.010664925 0.008083697 -0.18823008 0.025625706 0.11790521 -0.1998112 0.23927516 0.1590618 0.13296176 0.27513915 -0.0919291 0.076234646 -0.15719528 -0.33282438 0.13510664 -0.12611917 0.1252193 -0.2744228 0.3534744 -0.10709667 0.11165438 0.13842617 -0.50337607 0.20055848 0.3080207 -0.3460706 0.16599852 -0.08261321 -0.22926027 -0.2654794 -0.016142216 -0.038391177 -0.59798425 -0.030246632 -0.046481203 -0.16362463 0.11025185 0.061269563 0.13290815 -0.091281444 0.009926423 -0.2557527 0.047474295 0.37517795 -0.020260388 0.1910794 -0.13946614 0.083607405 -0.19458818 -0.050684765 -0.06679128 -0.092962235 -0.1941546 -0.25030184 0.041444723 0.28581485 -0.09753622 -0.30369726 -0.1387653 -0.043661896 -0.016116835 0.015629873 0.079211034 0.19440138 -0.31411687 -0.085786626 0.3554961 -0.169855 -0.034031693 -0.09796913 -0.17653482 0.14599366 -0.22257864 -0.11429101 0.23813853 0.20569094 -0.025554517 -0.50091994 -0.1173474 0.2120263 0.047106273 0.15303725 0.04189286 0.062353935 -0.12652035 0.12572095
it 0.014464186 0.110600136 0.07277641 0.09063875 0.33101004 -0.20218636 -0.41866577 -0.028104415 -0.0026534668 0.14893685 0.102751985 0.19173382 0.102530956 -0.06910371 0.2012566 -0.043650083 0.025605952 0.058807548 0.028471598 0.030900313 0.048848845 0.02224114 -0.13529296 0.15446278 0.025399324 0.14615801 -0.10831836 0.10841459 0.017089428 -0.2264239 0.40570813 -0.10980228 0.13219804 0.08532329 0.03063081 0.06225803 -0.2381726 -0.20208637 -0.087863706 0.21384355 -0.14491472 -0.019844761 -0.0024728645 -0.089668095 -0.17154165 -0.07238254 -0.064834744 0.3626114 -0.124431156 -0.07833144 0.045012396 -0.18239844 0.23814313 -0.22132543 -0.034022506 -0.33988023 0.106535204 0.16584551 0.24015741 -0.18117121 0.07529442 -0.09300793 -0.23433995 0.19308189 -0.08883845 -0.21626417 -0.12157301 0.22216098 -0.29463923 0.17533271 -0.12342964 -0.05312473 -0.19142154 0.00050571875 0.00059778837 0.2668999 0.09331884 0.14024767 -0.056696806 -0.22875318 -0.0011731144 0.019271098 -0.023966895 0.16365029 0.10218827 0.08630177 -0.28543052 0.123153426 0.46023425 0.12638444 0.10244801 0.117156506 -0.07711622 0.20095164 -0.36642867 0.11480239 0.19210616 -0.109865844 -0.16577686 -0.09177243
as -0.11650158 -0.00044570887 -0.020727983 -0.09018003 0.4671433 -0.08972973 0.060321465 0.03511367 -0.052100465 -0.008046404 0.11855327 -0.028151467 -0.0018271732 -0.008478731 -0.05448889 -0.13072163 -0.18469432 0.11617207 0.24082352 0.10167869 0.21416265 -0.021429814 0.052546076 0.09086761 0.025892472 -0.048097517 -0.0586144 0.024666807 0.1071209 -0.158484 0.050484575 -0.30769077 0.17884283 -0.018660612 -0.02911184 0.079947196 -0.40231967 0.11590973 0.21974213 -0.06840456 0.036932085 0.05246295 -0.082843505 -0.04677947 -0.08034081 0.0027447161 -0.30709818 0.031914532 -0.09346409 -0.10261182 0.19116808 -0.115662955 0.020267772 -0.06819503 -0.17646153 0.008200893 0.015172986 0.27157074 -0.08813931 0.060928795 -0.037471935 -0.052530684 -0.12544176 -0.05104919 -0.040438946 -0.033153433 -0.1750528 0.063991085 -0.048245467 0.02686656 -0.055324864 -0.23922558 -0.013917412 -0.14180255 0.077949725 0.07399952 0.10169262 0.060041096 0.029241275 0.15980375 0.15345766 0.069980055 -0.13607462 0.033095855 0.16543807 0.10257412 -0.12799412 -0.10280902 0.006512424 -0.084231585 -0.04401669 -0.2951646 0.05416859 0.17989908 -0.12455333 0.12071653 0.04482225 -0.14033246 -0.042308714 0.0432859
not 0.043183494 0.05301957 0.1262354 -0.099843904 0.21548237 -0.16464643 -0.37635484 -0.008582364 -0.07624699 0.12235781 0.12662382 0.20249729 0.08766025 -0.13789788 0.08562587 -0.07094487 -0.20436281 0.13560227 0.29352582 -0.2081062 0.17785662 0.122774534 0.10582971 0.08444741 -0.031246798 0.08590138 -0.13249086 -0.057884768 0.10550909 -0.17543118 0.2750483 -0.28025913 0.2090731 -0.032824174 -0.13184462 -0.04219574 -0.11280242 -0.0075184144 0.20904177 -0.06750978 -0.050890297 -0.038721792 -0.18392451 -0.036322124 -0.14231637 -0.08737885 -0.27218527 0.170512 -0.039071307 0.061502263 -0.18954699 -0.08666199 0.05766416 -0.21280935 -0.06306875 -0.2101078 0.21129845 0.35318595 -0.0013303796 -0.1804502 -0.16853091 0.08109297 -0.114995494 0.0052291756 -0.056930076 0.03747046 -0.15173425 0.10259306 -0.19386847 0.031475186 -0.1683338 -0.14430818 -0.3275001 0.061772063 0.007934614 0.30847275 0.1631451 0.03206589 0.0711337 0.06820851 0.12172123 -0.0081758825 -0.10271547 -0.039951988 -0.40018904 0.07732375 -0.12424531 -0.09713868 0.3168493 0.13278173 0.066012815 -0.16902836 -0.06545184 0.18013455 -0.06645851 0.14871234 0.034290172 -0.018268527 0.14792037 0.025730932
were 0.03839593 -0.018500466 -0.061309855 -0.097356126 0.13444184 0.059469204 0.12257016 0.021740327 0.0038405338 -0.023460083 0.07875123 -0.055081736 -0.07425507 -0.072108194 -0.052107655 0.037629448 -0.10674494 -0.063926116 -0.047099326 0.0782535 0.05737974 0.08501118 0.109346196 -0.012686875 -0.03778794 -0.051386077 0.008541427 0.116946936 0.09494478 -0.20653568 -0.19127436 0.017749632 -0.015530738 -0.033343 0.12995799 0.09255248 0.006866759 0.12596156 -0.06640746 -0.07546067 0.14413832 0.009099322 0.07186552 0.12304883 -0.0044684918 -0.022791281 -0.11853127 -0.06457567 -0.15279602 0.028728515 -0.19754668 -0.13119385 -0.06395036 -0.057364177 0.124841146 -0.04388231 0.10406606 0.077799514 0.07567501 0.024981853 -0.032465562 -0.15730047 0.042391017 -0.069416255 0.06555693 0.13948537 -0.055140488 -0.16196755 0.030416459 -0.0032166482 -0.0012050768 -0.30841568 0.03649168 -0.052013196 0.014588447 0.023568232 0.12837762 0.06648971 -0.031395566 0.07855531 -0.057249047 -0.00048166898 -0.047333848 -0.026801717 -0.19334073 0.07242589 -0.060115486 -0.023203274 -0.006463492 -0.05499494 0.06251679 -0.095979154 -0.10551507 0.1376417 0.011130917 0.076385655 0.05328444 -0.014733063 -0.10500301 0.023296246
they -0.0464596 0.10781823 -0.092655525 -0.07202147 0.2684562 -0.18370813 -0.031222671 0.03133972 -0.052892737 0.1220905 0.025272343 0.092033185 -0.08846689 -0.049446303 0.078228645 0.049022026 -0.118574865 -0.1743762 0.13272843 0.04288277 0.1336459 0.066982836 0.04625337 0.056237657 0.02947246 0.061086647 -0.12660629 0.15817966 0.062370565 -0.16671014 0.12952694 0.13350362 -0.020721748 -0.032953173 0.16264778 0.11679697 -0.08226073 -0.16036838 0.07882461 0.1686226 -0.031199917 0.06387086 0.22106217 0.16969453 -0.16877222 -0.15068816 0.24606939 0.058843993 -0.025974158 0.011941106 0.05706663 -0.13803443 0.04466746 -0.11123307 0.06128435 -0.18098372 0.17470308 0.07696026 0.094335034 0.06710395 -0.16548143 -0.11270536 -0.11641946 0.024610236 -0.006792817 -0.015761621 -0.14251557 -0.086765885 -0.114816375 -0.0347972 0.039896477 -0.036442496 0.008535584 -0.070513785 -0.07494831 0.026909346 0.058434874 0.09194891 -0.01079987 -0.08332242 0.070177026 0.10825892 -0.09792489 -0.08322835 -0.15560636 0.05210162 -0.04248695 -0.02757472 0.28382814 0.11174458 0.0371904 0.167958 -0.09559253 0.17730334 -0.14254834 -0.0006817684 0.09033677 -0.029900981 -0.022896504 -0.0063919146
with -0.080258295 -0.1274401 0.034603976 0.01723024 -0.16253468 0.0031262988 0.0270475 0.04924751 0.058785893 -0.22635718 0.14300841 -0.020894896 -0.10108361 0.13539289 -0.06709988 -0.09142196 -0.09009949 -0.039481796 0.093089454 0.22174665 0.003578465 0.15061869 0.077490926 -0.03614608 0.021031803 -0.058928393 0.038864303 -0.12054606 0.018004002 -0.01865093 -0.010787939 -0.035959385 -0.12050346 0.04508986 0.05323822 0.043161325 -0.048813783 0.040162798 -0.16331844 0.016653331 0.037833568 -0.050075997 -0.10988632 0.037864115 -0.01763019 -0.037216518 0.042196672 0.0900098 -0.14800939 -0.023072116 -0.107919425 -0.09114999 -0.040563438 0.005578146 0.054306474 -0.062305212 -0.14086652 -0.023284163 0.04830494 0.006915372 0.036939967 -0.02203393 0.13532194 -0.050087553 0.08941438 -0.032088175 -0.08868767 -0.12016945 -0.13408963 0.010352101 -0.02688411 0.04748756 0.060890272 0.021161754 0.04768714 -0.13226397 0.08840136 0.07377742 0.10243229 -0.011369663 -0.022820644 -0.08118079 -0.17610791 -0.10683539 0.10332525 -0.011672542 -0.054589506 0.026054896 0.052371778 -0.08910664 -0.061065946 -0.122243404 -0.045898173 0.10536345 0.09489658 -0.018035248 -0.0015472744 -0.02131892 0.017148277 -0.1475451
at -0.0788122 0.014539775 -0.020084688 0.088321075 -0.032212555 -0.01458439 0.16344842 -0.07388191 -0.0469461 -0.0739976 0.12531243 -0.10352886 -0.13214122 -0.04172544 -0.1389864 -0.09218207 -0.07540207 0.20825344 -0.043716546 0.1311059 0.16963384 0.11921659 0.12871942 0.06522592 -0.12109587 -0.035862993 0.0964472 -0.12551871 0.0784123 -0.020438004 0.09732304 0.03233181 -0.11328579 0.026964545 0.05036617 0.16090915 -0.13019127 0.14472336 -0.10343472 -0.1985565 0.14157158 0.010095949 -0.21262972 -0.07630994 -0.03993003 -0.010366752 -0.21724221 0.06945422 -0.06474908 -0.024036057 0.07097755 -0.0288346 -0.072053246 -0.08167482 0.059886828 -0.14761579 -0.061779026 -0.040466186 -0.027225157 -0.0038502396 -0.058232237 -0.08186645 0.011359366 -0.0076178494 0.04720654 0.0010303955 -0.104041025 -0.045725457 -0.098163255 0.0865656 -0.0038478794 -0.15064664 0.06514283 0.026426785 0.12908551 0.078558534 0.23284963 0.14996228 0.04292344 0.050168514 -0.06086026 0.014480952 -0.101537466 -0.08315698 0.035999127 0.0472617 -0.06440585 -0.04239337 0.17693694 -0.16335478 -0.120617904 -0.18410565 0.05084513 0.10276875 -0.017468086 -0.07144975 0.12073637 -0.010587334 -0.08734532 0.029424695
but -0.015532006 0.0078305 -0.12729216 -0.06475446 -0.04920702 -0.18404725 0.02705808 -0.024313139 -0.05863447 -0.13232058 0.07448199 -0.015580345 0.017940754 0.011384933 -0.043512207 -0.08293726 -0.08240883 0.041546352 0.055497307 0.066855825 0.055993646 0.1632932 0.12968338 -0.0007904109 -0.05286016 -0.03253282 0.0089624375 -0.046104796 0.0041691856 -0.12576312 0.018646441 -0.19141868 0.13686027 0.025221288 -0.036976635 -0.0109956395 -0.14447342 0.09124633 0.05686115 -0.02252018 0.13629648 -0.033373255 -0.098376244 -0.0570705 -0.08497475 -0.026828086 -0.09181327 0.13581622 -0.09835509 0.031405456 0.015451684 -0.07798151 0.14343174 -0.027803259 0.01801208 -0.08136422 0.07458062 -0.005809953 -0.03751245 -0.01930609 -0.045434114 -0.05518764 -0.09837281 -0.012918355 0.023803962 -0.031372137 -0.17316571 -0.038148068 -0.055543758 0.09375476 -0.023775175 -0.12213026 -0.21151678 0.017670557 -0.06917919 0.13730554 0.021975275 -0.014941839 0.023871174 -0.024009084 0.09020773 -0.095465906 -0.0944659 -0.13176483 -0.21152635 0.021970185 -0.15435098 -0.04141682 0.24535546 -0.013071145 -0.08163468 -0.1512421 -0.043051545 0.18304254 0.14431384 0.093930885 0.11259128 -0.0040070433 -0.02579834 -0.042825148
for -0.08993411 0.011733324 -0.09762243 -0.012428996 0.016235266 -0.04379403 -0.06765652 0.05453894 -0.0054336707 -0.10197272 0.08728572 -0.056698915 -0.0539099 -0.035903316 -0.0935758 -0.09906633 -0.15174271 0.10797273 0.07311919 0.08808415 0.046934716 0.14336921 0.1254395 0.008867161 -0.08680072 -0.052349772 0.048464034 -0.17744258 0.051097717 0.01063181 0.027274003 -0.17437088 0.13676871 -0.0066490476 -0.052981563 0.007115176 -0.071052186 0.16562054 0.015543736 -0.12382293 0.18414778 0.0033145486 -0.104462214 0.05551033 -0.021210115 -0.012812052 -0.21070552 0.15350172 -0.063728906 -0.038356896 -0.06508817 -0.043334555 0.15739653 0.0023599344 -0.012572244 -0.05839782 -0.067522414 -0.04736569 -0.026556103 0.04741441 0.04583325 -0.07106691 -0.11090311 -0.088698834 -0.092536956 0.037049036 -0.03411575 0.022375027 -0.09233994 0.092558354 -0.00785691 -0.11947409 0.0014372703 0.065026484 0.11443012 0.14531335 0.15176404 0.034278955 0.04594211 0.0036146995 -0.022069616 -0.16405563 -0.03756339 -0.052138776 -0.02693182 0.05034364 -0.07818333 0.036836453 0.21272297 -0.07772642 -0.04798165 -0.13940878 0.01973251 0.1223614 0.09057339 -0.024599442 0.051282555 -0.12139792 0.018301036 -0.037182413
from -0.057757176 0.0223268 -0.10642174 0.024719441 -0.07916691 0.007867495 0.16748568 0.015710805 -0.17996146 -0.14016627 0.1481762 -0.1573094 -0.010478322 -0.063077144 -0.19456215 0.024245115 -0.20973396 0.045922957 0.1569453 0.080787785 0.115042 0.15022467 0.08841987 0.15202162 -0.12524635 -0.04010122 0.12017159 -0.077766515 0.040214904 0.025329225 -0.082171 -0.031091826 -0.050082568 0.008414368 0.086503 0.1374272 0.091992155 0.06634869 -0.08264735 -0.13361333 0.100125864 0.04589076 -0.09323405 0.02524887 -0.1099001 -0.048091594 -0.090021364 0.14619471 -0.1319947 -0.083266765 0.09177942 -0.0036955297 0.04116871 -0.02172375 0.13053903 0.121583186 -0.0021418547 -0.1181371 -0.038499717 0.08603742 -0.03715411 -0.119511865 -0.029162273 -0.06777946 -0.11046041 0.0056839357 -0.10415342 -0.1936098 0.021632995 0.01718937 0.0694896 -0.12223237 0.079486616 0.09466861 0.10144244 -0.026686866 0.12691548 0.04516167 0.055167977 -0.065682314 -0.12035556 -0.0807031 -0.089480996 -0.06771738 0.04475915 -0.012028687 0.08379322 0.06142088 0.19040751 -0.096857235 -0.06633983 -0.13418223 0.098559126 0.29461557 0.037329435 -0.06916789 0.1422242 -0.090720326 -0.11716787 0.0295815
all -0.09238458 0.07224259 -0.051573884 0.19787185 -0.033517364 0.04638365 0.03783113 0.031043872 -0.028536452 -0.056032114 0.05498654 -0.062170886 -0.08859434 0.08092647 -0.036273252 -0.039917286 -0.10955752 -0.038714126 -0.0076435027 0.05688481 0.047920536 0.07097252 -0.068488255 0.021403447 -0.05646644 -0.03257934 -0.011487121 0.05764961 0.05616834 0.0023293488 -0.007928677 0.14729197 -0.1723241 0.038304403 0.07540827 0.09758515 -0.19201589 -0.02350651 -0.09848762 0.0066595534 0.08423881 -0.023883717 0.023383513 0.020877197 -0.05931862 -0.065882914 0.0058847503 0.13973472 -0.09532746 -0.006726189 -0.08319393 -0.044100888 -0.09173812 -0.01831586 0.006121504 -0.10910997 -0.03913298 -0.10891244 0.01956386 0.086598 -0.045215677 -0.15003525 0.039145023 -0.0013884344 -0.09774901 -0.106197156 -0.10918751 -0.033127222 0.018769883 -0.027095111 0.08464576 -0.05356014 0.069897614 0.034642994 0.026028482 -0.14239427 0.13038258 -0.0073639397 0.019138511 0.029588059 -0.057840798 0.071280494 -0.012991766 0.042474985 -0.03614325 0.065067366 -0.03929259 0.04625622 0.16225645 0.024084197 0.012024072 -0.009307945 0.027249254 0.028352764 -0.06606071 -0.006442694 0.07684437 -1.2321747e-05 -0.0016801714 0.03601207
which -0.022384377 -0.09746087 -0.10806591 0.02766058 -0.13912478 -0.08194874 -0.060332846 0.0018995124 -0.043167666 -0.013581673 0.05272787 -0.025728464 -0.0406587 0.042310577 0.025234036 0.025138106 -0.06935503 -0.050453242 0.04950014 0.058776047 -0.06951644 0.055710606 -0.014314008 0.08465184 -0.017400255 0.03990457 -0.090069845 -0.0057580075 0.0014523475 -0.0055324812 0.018729253 -0.009078292 -0.028798725 -0.039769944 -0.084533006 -0.06766038 0.03032417 0.00063052087 -0.14127253 0.14975213 0.20104817 0.07341446 0.036822226 0.04447498 -0.122355394 -0.04185817 0.03951407 0.16152214 -0.1117606 -0.042587973 -0.04110529 -0.19220959 0.1513027 -0.107333414 0.007839011 -0.050562434 -0.05475817 -0.035146352 -0.041581728 0.024745557 -0.13562581 0.041953184 -0.07960074 0.029417405 -0.053366285 -0.12209363 0.021283066 -0.039700266 -0.08014374 0.12746584 0.09989862 -0.05599107 -0.020108532 0.038781438 0.120484084 0.019382875 -0.009295911 -0.09939949 0.0019643027 -0.05158209 0.08390751 -0.11820903 -0.06672265 0.071642734 -0.019056309 0.01999488 -0.12236332 0.07729149 0.2770801 0.057561282 -0.048701167 0.04277525 -0.0010756197 0.10085361 -0.08248966 -0.06937191 0.045268163 -0.12013819 0.023954475 -0.038488377
when -0.18950887 -0.06326432 0.0035236902 0.034828875 0.13788587 -0.026162405 -0.08387318 -0.035565875 -0.057399206 0.041597042 0.15514384 -0.026136331 -0.05196283 0.008597881 -0.0025705416 0.010693783 -0.043590806 0.16517495 0.0697143 -0.034535304 0.15011309 0.05848616 0.0441053 0.01819244 -0.074848995 -0.04251267 0.10253427 -0.15856808 0.104884245 0.0392413 0.21762013 -0.16285267 -0.06610002 -0.006883935 -0.15331689 -0.020918993 -0.23476961 0.07670486 0.10144636 -0.2702503 -0.0099011315 -0.054255366 -0.28884345 -0.072304495 -0.021922432 -0.018287018 -0.16833664 0.081244506 -0.18796293 -0.018740937 0.0053348294 -0.05202013 0.059011918 -0.07355587 -0.037924495 -0.1527504 -0.07523149 -0.028759565 -0.059326995 -0.10652607 0.0036792618 -0.12971242 0.048526283 0.016526962 -0.026784796 0.007551522 -0.11694699 0.091465205 -0.08751104 0.008782737 -0.09162743 -0.15548456 -0.0063837767 0.0044491086 0.13829397 0.062665865 0.17984025 0.014321523 0.08202165 0.10214469 0.098573215 -0.059648287 0.023943905 0.010860615 0.07645269 0.09295254 -0.20024063 0.030805968 0.21922341 -0.05206356 0.033564646 -0.15138617 0.07689215 0.024207538 0.003662323 0.13311015 0.06221109 -0.07630622 -0.016537443 0.04269926
me -0.10590863 -0.063856706 -0.14283268 -0.00830145 0.15105306 -0.10959992 -0.0348736 -0.10949669 -0.01242113 0.16557088 -0.04930242 0.08826076 0.112680376 -0.08771731 0.08300967 -0.0015004541 -0.027482964 -0.06642009 -0.1638177 -0.080872536 0.09886325 0.08767885 -0.09779114 0.038981635 -0.017256886 0.13581784 -0.08105511 0.0810922 0.18277772 -0.014699245 0.035081487 -0.14037518 0.0721208 -0.1386457 -0.03388903 -0.07065871 0.03765259 -0.03316221 0.09039207 0.1205142 0.058850538 -0.14618991 0.089494064 -0.069869936 -0.116398916 -0.017049562 -0.08694942 0.085011 -0.043453895 0.018624112 0.14528361 -0.013623501 0.11881062 -0.20962968 -0.17130466 -0.13672726 -0.0038310408 -0.015426428 0.04715063 -0.12184031 -0.079016194 0.1145937 -0.03541275 0.11735012 0.0307921 0.116139196 -0.012589521 0.06293129 0.06880866 0.0119970655 -0.04192737 -0.024672505 -0.02331551 -0.13062198 -0.0053536734 0.09737722 -0.028040474 0.0337465 -0.08367303 0.042744942 -0.030893555 -0.013807802 0.116794884 0.14187486 0.054008093 -0.0067784125 -0.052584413 -0.09992457 0.0308438 0.054924544 0.0626853 -0.01002603 -0.029111225 -0.023686508 -0.27807868 0.025792146 0.1824373 -0.03839556 0.01381229 0.11718843
my 0.036659323 -0.0692726 -0.07649867 -0.048160262 0.0883676 -0.024552979 -0.17699482 -0.036134645 0.05697894 0.07100962 0.012638455 -0.006546608 0.101715796 0.08828997 0.09008752 -0.013555474 0.01399476 -0.05752424 -0.09259521 -0.12220223 0.12681668 -0.0005885663 -0.07852956 -0.13369466 0.053083234 -0.024476789 -0.14674532 -0.050281152 0.028496081 0.08718824 0.056155793 -0.1402032 0.04727188 -0.04272485 -0.07051739 -0.12585585 0.116718695 0.0023858068 -0.033521418 -0.05510237 0.11341432 -0.041219138 0.033576213 -0.115006976 0.056454703 0.055947192 0.10519429 0.04311236 -0.001758452 0.070644915 -0.021848818 0.07771567 0.014266977 -0.17263706 0.098852016 -0.024218787 -0.084880665 0.22831884 0.02294033 0.010534001 0.0102812145 -0.037788093 0.10661575 -0.036170222 0.061736226 0.03676274 0.011557659 0.106487446 0.043656647 0.021759395 0.0027162707 -0.016185008 -0.11109378 0.016567133 0.016690698 -0.052375223 0.006750916 -0.11001285 -0.015050963 0.056568652 0.0473963 0.019051895 0.06735258 0.056473937 -0.03214975 0.013976119 -0.10843898 0.004841951 -0.023031924 0.08817084 0.08922739 0.011369353 -0.07456598 0.03677361 0.087618366 -0.0034674294 0.11096521 -0.031353492 0.05979768 0.12818472
there 0.1313991 0.0098045245 0.07101122 -0.059860714 0.093004964 -0.054573573 -0.1407111 -0.041759375 -0.017427547 0.02789003 0.02321683 0.12582445 0.07796543 0.105723396 0.08443487 -0.097258136 0.0052425726 0.05097473 0.20644277 0.05107756 -0.011839588 0.07152825 -0.06531396 0.035984613 0.032945987 0.05784026 -0.050721288 0.079713576 -0.07051342 -0.082727395 0.07106186 0.16332653 0.027889812 0.06158074 -0.08881858 0.1009116 -0.022288628 -0.094043225 0.0188655 0.23252155 -0.08918216 0.0064265504 0.04968368 0.028688239 -0.016387228 -0.11180585 0.20710687 0.111331716 -0.02976008 0.040192686 -0.20572753 -0.085291676 0.13056542 -0.1220791 0.01985088 -0.059992984 0.11513118 0.0748793 0.050638672 -0.09906069 -0.0008658697 -0.09881645 -0.018295214 0.021915857 -0.008664358 -0.013247291 -0.086609334 -0.11067254 -0.1517836 -0.008660816 -0.08480967 0.08535733 -0.0789497 -0.020525305 0.040009823 -0.0066904863 0.1301781 0.16043854 -0.010093889 -0.093928896 -0.21943852 -0.019626625 -0.0675629 0.101900615 -0.034193996 0.03534219 -0.09608187 -0.072040245 0.2556769 0.035869468 0.10767609 0.08343946 -0.057157174 0.12099667 -0.14811175 0.11619243 -0.0010619463 -0.009505152 -0.08383471 -0.062827185
he 0.07473945 0.074099764 0.04877101 -0.016682193 0.009159731 0.011606755 -0.10212023 -0.085942544 0.06025465 0.07115602 0.013795273 0.029695207 0.011445442 0.120023936 0.05527832 0.02528471 -0.08154133 0.01005401 0.12240733 -0.05413223 0.056441195 0.0363615 -0.008433767 0.05003348 0.0013721581 0.011675008 -0.08637944 0.025184399 0.0008023974 -0.015556286 0.06665854 -0.007111162 -0.023371862 0.044042677 -0.060414825 0.0913988 -0.057198513 -0.07106572 0.04930764 0.1477783 -0.0651621 0.0033576433 0.034869377 0.051142905 -0.060917966 -0.021420844 0.10666862 0.04456141 -0.05803943 0.028723573 -0.022499207 0.013677383 -0.02863039 -0.035790835 0.008621204 -0.12333491 0.016193606 -0.077200204 0.09334873 -0.03646444 -0.0414106 -0.04514503 -0.061490078 0.01637487 -0.036670364 -0.014336896 -0.07785542 -0.021776278 -0.044937838 0.07889298 -0.108018264 0.1375063 0.025976667 -0.0053259665 -0.08984289 0.05897733 0.10674289 -0.027934918 -0.07348843 -0.04156897 -0.09339295 0.02118465 -0.031120524 0.037652776 -0.045370698 0.07685584 -0.12288299 0.004581423 0.18925785 0.014476151 0.0784526 0.0961667 -0.03418342 0.0619046 -0.1561578 0.02384552 -0.024062077 0.019272108 -0.04336434 -0.046133798
no 0.064048685 0.021319447 0.040072516 -0.11293558 0.06579736 -0.10857593 -0.11125707 -0.05489984 0.048774004 0.041502506 -0.018289542 -0.007833751 0.057717152 0.056921043 0.097395405 0.07139307 -0.017651292 0.016274828 0.19503134 -0.036843054 0.07016255 -0.014972717 0.035724424 -0.027581973 0.03736677 0.04457828 -0.087087244 0.03902038 -0.007237298 -0.049688745 0.07555874 -0.04871415 0.13468704 -0.048140556 -0.10071067 -0.018014563 -0.08823975 -0.051547512 0.10985241 0.09635948 0.053083677 0.033495937 -0.029851712 -0.011878287 -0.054753203 0.055424158 0.02941363 -0.014926903 -0.06521899 0.048430312 -0.13290422 -0.052193638 0.04651529 -0.016781636 -0.012807356 -0.060613893 0.087646686 -0.039380968 -0.09396127 0.009760261 -0.11946147 0.0023581437 -0.013689879 -0.012084644 0.003941632 0.056926176 0.007750476 -0.021360464 -0.14128166 -0.007609539 -0.06395995 -0.010543871 -0.046797145 -0.03917562 0.024243632 -0.016941328 -0.056813944 -0.0641814 0.006237312 0.03426705 -0.04838737 0.024994425 -0.041263975 -0.026673522 -0.09600984 0.05907889 -0.1427346 0.022362234 0.09506402 0.03175769 0.13380657 -0.046605386 -0.097212195 -0.06718842 0.040632747 0.12607057 0.029149465 -0.056086753 -0.0007903436 0.041673332
could 0.003602153 0.17463142 -0.1145564 -0.21934986 0.32777894 -0.28954023 -0.17538242 -0.18391001 -0.04060434 0.012663698 0.05063256 0.06896692 0.1119471 -0.31193277 0.16833007 -0.21762657 -0.24914545 -0.17566937 0.23321012 -0.078947395 0.09729098 -0.0041113533 0.14660214 -0.14604405 -0.07929131 0.13267852 -0.084188454 -0.17332074 0.09828279 -0.20338495 0.36913386 -0.19762781 0.32444102 -0.04601792 0.06763297 -0.07508929 -0.030412618 0.14792109 0.26246628 -0.21306828 0.031177942 -0.13860187 -0.2774972 -0.1039598 -0.17384867 0.08653238 -0.12853141 0.23053832 -0.026041409 0.054064672 -0.1751389 0.023944799 0.17045014 -0.20910682 -0.13004495 -0.16172425 0.18706694 0.18315329 0.19304883 -0.19590946 -0.17738955 -0.0026888046 -0.2329331 0.11809285 0.12463507 0.2584337 0.15128091 0.13678136 0.0387045 -0.031830676 -0.20648955 -0.3022588 -0.22750011 -0.24318731 0.05009645 0.33846733 0.2728225 -0.035693903 -0.1503889 0.14802895 0.037767503 -0.061802525 -0.038711336 -0.02276054 -0.22147141 0.20118797 -0.016584953 -0.19157593 0.24622054 0.24342266 -0.023219703 -0.1106081 0.037945073 0.114253506 0.08425592 0.1677712 0.090379834 -0.19816999 0.0088548055 0.10198706
s 0.07326663 0.016173463 -0.11053261 0.06860342 -0.25994983 0.051119838 0.107782274 0.00418859 0.013272751 -0.108912274 0.17340119 -0.035803556 -0.0795981 0.040600844 -0.0063651484 -0.03214961 -0.086235575 0.0013323455 -0.04984347 0.14189756 -0.05402363 0.12121509 0.039524425 0.010840547 -0.08135228 -0.055936072 0.10238875 0.071931615 -0.01541769 0.016747532 -0.077116445 0.03375758 -0.024697877 -0.050373085 0.14288095 0.06506766 0.042171158 0.025396682 -0.25707275 -0.23989391 0.082495324 -0.03577178 0.077297136 0.1795406 -0.097407125 0.097202815 0.103674844 -0.059054974 -0.07580264 0.032142222 -0.07747401 -0.04337041 0.0123118 0.0748684 0.09422353 0.0025834206 -0.14157254 0.04627633 0.065696724 0.04376589 -0.06914646 -0.03770237 0.0581034 -0.045718603 -0.09084143 0.007882118 -0.04340096 -0.23891692 0.071959116 0.0032791467 0.11367032 -0.20920411 0.01596293 0.1526667 0.04744036 -0.12873577 0.036081195 -0.077577055 0.122974046 0.009784503 0.17897323 -0.002875907 -0.042092666 -0.12747991 0.04606452 -0.01809821 -0.13571443 0.11590424 0.0206005 -0.005049753 -0.08809212 -0.12895733 -0.06447261 0.14234428 0.11271157 0.010331087 0.05367311 -0.11674911 -0.12060883 -0.0061112437
be 0.20927571 -0.022958884 -0.086708896 -0.22063397 0.08461363 -0.10247234 -0.013670918 -0.014458919 -0.015499773 -0.057231147 -0.024973737 0.07437245 0.23137373 0.10798994 -0.0017263957 -0.0111850165 0.022728544 -0.10538071 0.0012841012 -0.119147256 0.15071984 0.038258485 -0.029612692 0.025428573 -0.038831253 0.040376127 -0.13571708 0.07940057 0.01935704 -0.09072353 -0.19884819 -0.010711097 0.06924888 -0.06629394 0.026250748 -0.010996871 0.19871241 -0.0033873697 -0.10597055 0.1296486 -0.014653196 -0.0041252007 0.055657655 -0.23208565 0.025831083 -0.037628643 0.048482817 0.067340545 -0.008386014 0.010057042 -0.008885622 0.03355849 0.11164622 -0.2130128 0.118662484 0.02065659 0.1269738 0.22258456 -0.021568196 0.018482003 -0.12222297 -0.019625604 -0.09466173 -0.0024665587 0.1299072 0.010855487 -0.006742062 -0.18112321 -0.029062707 0.0010652489 0.023055729 -0.09539094 -0.106828265 -0.026219076 -0.050801724 0.15518178 -0.116648406 0.07756798 -0.15193775 0.026799949 -0.21135615 -0.10733606 0.0447747 -0.0044672852 -0.17224045 0.031395905 -0.08113262 -0.08737246 -0.010131362 0.15332235 0.1392447 -0.018589707 -0.06591837 0.14370173 -0.012206079 0.022428596 0.1771731 0.09009849 0.08015254 0.15081732
by -0.006762389 0.03236264 -0.06626594 -0.010895293 -0.08292523 0.02738336 -0.040320914 0.0016436181 -0.0407689 -0.09808254 0.066521585 0.002060242 -0.026990265 0.05906817 -0.07473882 -0.14126681 0.005039486 0.09095517 0.062978044 0.18221697 0.04668624 0.105398074 0.072886094 -0.012463513 -0.068896145 0.018385366 0.049963832 -0.13933964 -0.032277714 0.03942452 -0.07561161 -0.049599566 -0.07548384 0.052753635 0.02045549 0.034618385 -0.013916948 0.08555352 -0.10807161 -0.06591446 0.06198142 -0.07573663 -0.092146374 0.11454167 -0.056667008 0.08509751 -0.13752717 0.09301652 -0.055873573 -0.020054646 -0.029523734 -0.007815337 -0.029465552 -0.023566937 0.07166634 -0.09492445 -0.073317155 -0.13822514 -0.06622129 0.07955135 -0.071680285 -0.034881108 0.07644086 -0.01192806 -0.0074884263 0.013992521 -0.114942536 -0.010874345 -0.09709023 0.097238965 0.051487803 -0.09152563 0.057385866 0.035317324 0.064620614 -0.01803812 0.027154695 0.033765335 0.11695376 0.10224048 0.03032118 -0.04848677 -0.10987217 -0.10154328 0.088387296 0.062229306 0.015595821 -0.002513866 -0.0055114822 -0.058837317 -0.092866845 -0.010988616 0.07418563 0.10023536 0.04065506 0.0019756735 0.050567668 -0.008115381 -0.08693021 -0.015736584
on -0.019649822 0.009856745 -0.042072337 0.07316863 -0.053091235 0.035137363 0.0740969 -0.0038222554 -0.1436262 -0.08899458 0.083736144 -0.055236172 -0.012972667 -0.050102245 -0.15227908 -0.024320459 -0.10098384 0.08119867 0.098975405 0.11768796 0.062453024 0.15454927 0.12769678 0.053483546 -0.059796743 -0.077398844 0.051997744 -0.05171176 0.030546583 0.022172945 -0.014320823 -0.0018180805 -0.10584868 0.014980334 0.039944872 0.11852725 -0.076373026 0.025333611 -0.040709414 -0.07822086 -0.028456304 -0.10668419 -0.086794145 0.14520757 -0.09132578 0.021949133 -0.08572355 0.05627697 -0.051805515 0.008528711 0.04958451 -0.037827525 -0.018856818 -0.027834678 0.06424572 0.038682226 -0.07680511 -0.1127844 0.04869242 0.057212528 -0.05110834 -0.034145873 0.081331015 -0.09806578 -0.015239611 0.0015111458 -0.11903117 -0.031509213 -0.10968244 0.07785863 -0.016417209 0.056112826 -0.012993146 0.016183075 0.081594095 -0.07912259 0.032472204 0.001491057 0.08211406 0.03364624 0.049341373 -0.087421685 -0.23210368 -0.12818775 0.089499 0.03234794 0.077025086 0.03309929 0.12642236 -0.08127379 -0.07297107 -0.067231834 0.03858304 0.103916675 0.08593648 -0.08635834 0.05616386 -0.057345763 -0.07088269 -0.050601676
saw -0.11236147 0.06915144 -0.02168737 0.064114556 0.2401416 0.0142832 -0.16220722 -0.10672188 0.02579451 -0.03160407 0.063847296 -0.044100977 0.007962264 -0.119182594 -0.031237181 0.0328781 -0.12199162 0.14143111 0.0498981 -0.08951674 0.16609044 0.07162791 0.14811593 0.064979844 -0.07451859 0.0032379501 0.016964681 -0.19130145 0.13535474 0.016711876 0.27087113 -0.207126 0.2744207 -0.03830604 -0.02690407 -0.04686928 -0.17768735 0.11547262 0.13904706 -0.19034444 0.014620425 -0.08007717 -0.21745554 -0.25317854 -0.12700377 0.06314239 -0.21216297 0.09267399 -0.099809 0.0049946206 0.15433985 0.04909993 0.089300856 -0.12181774 -0.14533801 -0.11574928 -0.07256599 0.046874512 -0.031978995 -0.016770126 -0.15892962 -0.06588455 -0.09891954 0.05386139 -0.048511747 0.030542051 -0.13719437 0.17720313 -0.107559025 0.11281305 0.019195635 -0.3230035 -0.036679745 -0.06747645 0.15545137 0.04389676 0.06934426 0.076788634 0.017114472 -0.02039057 0.2678092 -0.0069496604 -0.06852077 -0.028537802 0.05506273 0.061940897 -0.074551485 -0.053077754 0.2660076 0.0065693497 -0.044397388 -0.18049207 0.034762524 0.0019358151 0.09979654 0.03163276 0.047783844 -0.068604864 0.10003907 0.09712304
his 0.10200314 0.07684727 -0.049854502 0.004083035 0.003000416 0.063465476 -0.044000834 -0.023667704 0.07346685 0.07183861 -0.03608568 0.040278696 -0.004065199 0.1312314 0.10953018 -0.015330835 -0.009481076 -0.07638494 0.03997444 -0.033968173 0.014643248 0.05702577 -0.09646424 -0.15644415 -0.013770996 0.040804654 -0.028219132 0.013499412 0.0168148 0.009918124 0.055142988 0.050600167 -0.066880435 -0.05306819 0.055187058 0.0699967 -0.009441048 -0.13702966 0.023028413 -0.03356355 0.09578672 0.028928757 0.15279254 0.05130501 0.049271148 0.015050913 0.19036454 -0.07718841 -0.07987145 0.1153954 0.031726733 0.07505487 -0.046949953 -0.06175172 0.041672327 -0.13011283 -0.05117076 0.049350616 0.0046153343 0.06743016 -0.00021264527 -0.07193062 0.089828715 0.038492132 0.077939175 0.029507235 0.018020526 -0.059970334 -0.09594495 -0.1025738 -0.0439722 -0.0959983 0.0018386588 0.01919942 -0.024142673 -0.10307991 -0.023890333 -0.13951969 0.062247355 -0.04754094 0.038203053 -0.03827876 -0.05790292 0.03228389 -0.006698281 0.04094304 -0.14287119 0.023721356 0.045585543 0.08164278 0.009363141 0.123325065 -0.11343328 -0.05275284 -0.035497043 0.060801044 -0.069228865 -0.011387302 -0.043268327 0.056068406
this 0.10024095 0.08033959 0.015100607 -0.12562802 0.024826061 -0.007985109 -0.070870005 -0.03214706 0.063801385 0.09363322 -0.053844795 0.03713977 0.008828461 0.096857555 0.08720829 -0.05999502 0.0038430025 -0.05011812 0.09872019 -0.031771123 0.01553175 -0.04505098 -0.12692879 -0.034648623 0.04586589 0.036754817 -0.07577161 0.007569042 -0.011591764 0.05027817 0.03279652 -0.07842709 0.044390082 -0.050158538 -0.031817243 0.0045328005 0.05213931 -0.06528602 0.0033809845 0.03173072 -0.08081981 -0.10666197 -0.020894317 -0.056127977 0.043910976 -0.030212069 -0.014695773 0.11136033 -0.0857511 0.06975382 -0.019989844 0.038311772 -0.07329482 -0.02506328 0.023427982 -0.028302262 -0.032685097 0.060184825 0.009886413 0.037584014 -0.017764052 0.07497224 -0.005476935 0.0012937207 -0.013967946 0.04289822 0.0053051724 0.044138562 0.074978344 0.021437725 -0.17574748 -0.013262713 -0.037151698 0.0076823644 -0.074049525 -0.011463011 0.10035052 0.07847339 0.07119599 0.09908643 -0.05974144 -0.049187314 0.045288865 0.11996695 -0.04577247 0.04205685 -0.011327439 0.0038057354 0.033174198 0.0910045 0.083146796 0.043472126 -0.00081826793 0.06273411 -0.086156845 0.073045835 0.07869507 -0.016466469 -0.06310541 -0.07229837
so -0.017299024 0.11988496 0.024748314 -0.06548848 0.16460127 -0.0038967947 -0.13484374 -0.11976794 0.04192958 0.116289735 0.009846501 -0.059943195 -0.027716313 0.046355367 0.039038625 -0.0003015109 -0.20131709 -0.039106525 0.1280344 0.03219173 0.123992905 -0.06306309 0.07676286 0.009968871 0.05567025 0.03609422 -0.068248585 0.01255807 0.049021486 -0.07668754 0.18718912 -0.110599205 0.09622679 -0.11042178 0.062869765 -0.0034783194 -0.11252511 -0.12777369 0.106665716 0.16096485 -0.106018886 -0.03243437 0.01007703 -0.0059368717 -0.17142688 -0.04459437 -0.083073735 0.038341705 0.03782133 -0.001894071 -0.09275325 -0.031482235 0.10845312 -0.14579022 -0.04699827 -0.078514755 -0.1166029 0.033615995 0.089891985 0.06797195 -0.13156614 -0.005997356 -0.040139955 0.016083686 -0.022707008 -0.04885386 -0.05164819 0.030285055 -0.10017441 0.0250814 -0.02597991 -0.04668569 -0.08585856 -0.08900852 -0.017970836 0.008965131 0.037975866 -0.06919799 -0.100493915 -0.09125429 0.08587113 0.021972261 -0.0851204 0.036499616 -0.09922802 0.053428855 -0.14444554 -0.009416818 0.21174583 0.106112905 0.09215692 0.07584661 -0.09459198 0.004845512 -0.028380772 -0.019863885 0.039761346 0.08722387 0.03116792 0.17685339
old -0.08410017 0.060853057 -0.056471873 0.06248204 -0.051031973 0.0009339843 0.091476485 -0.03871784 0.0433862 0.02140996 -0.009921709 -0.05404225 0.09915025 -0.11811529 -0.048637822 -0.039768867 -0.058238734 0.02798074 0.10807842 -0.033113144 0.07951199 -0.05159068 0.0036048614 -0.0737248 -0.063039534 -0.061343607 0.009512515 0.0018771052 0.09044689 0.07941287 -0.050453387 0.03646674 -0.14329469 -0.047187433 0.015672525 0.06040643 0.047085725 -0.11434992 0.019691315 -0.059031323 0.05619986 -0.049575917 -0.057652593 0.12725464 -0.04706064 -0.033963356 -0.019853987 0.003203262 -0.057733424 -0.0013091818 -0.038618412 -0.018610666 -0.019901922 -0.06855567 0.04643946 0.012178684 -0.04590122 -0.15174462 0.027597705 0.031413928 -0.043333158 -0.051644288 0.053216495 -0.042657427 0.040010236 0.058212083 0.029085992 -0.055491116 -0.048381113 -0.058284733 0.028486675 0.08311038 -0.069143675 0.036709048 0.026934946 -0.09156774 -0.034787927 -0.08075667 0.039729018 0.020512274 0.017598059 -0.060823854 -0.10316019 0.025245154 -0.035736367 0.062210955 0.11497826 -0.10423018 -0.062060185 -0.006941635 -0.03286595 -0.07809187 0.038584877 0.008600734 0.06801752 0.015541698 0.06066958 0.020421166 0.03483515 0.060812067
one 0.03809738 0.0076127322 -0.08184526 0.009330313 -0.03630597 0.061949715 0.025299033 0.061220773 -0.057419192 -0.07940539 0.057288583 -0.022127893 0.01188141 0.03014883 0.014573311 -0.13357617 0.037105083 0.0017462953 0.046301626 0.033607412 0.043846775 0.01602648 0.025502536 -0.06308314 -0.09537035 -0.06590198 0.014356232 0.019457588 0.07095525 0.09348302 -0.0571777 0.135771 -0.10825527 0.05376707 0.010444488 0.04408899 0.052113604 0.020250134 -0.13223952 -0.1317078 0.038984556 -0.07406958 -0.02993373 0.10328088 0.009735197 0.04681461 0.07118209 0.059515547 -0.09867793 0.033827238 -0.0044394624 0.005313731 -0.02403916 -0.0178573 0.026995579 -0.050592393 0.007818827 0.089508675 0.03165531 0.08869976 0.013542405 -0.027520055 0.033644013 -0.088220485 0.024153285 -0.024367137 -0.03609132 -0.059276342 0.0054623215 0.11656889 0.019875677 -0.061868783 0.03335283 0.08089247 0.025125008 -0.04930315 0.043903727 0.050034378 0.028656138 0.015712794 -0.08967215 -0.028191071 -0.10292098 -0.05132984 -0.06347722 -0.0047056205 -0.06355844 0.019364113 0.0059882174 -0.061589822 -0.034158442 -0.044069342 0.018414527 0.062204342 0.03867158 -0.005244277 0.0099747 0.014027765 0.0036925094 0.00756934
its 0.03837824 -0.047668163 -0.086619295 -0.042545076 0.004069167 -0.05717254 0.051209275 -0.06393478 -0.039454848 0.07396328 -0.01821847 0.09834118 0.074940324 0.09960356 0.0043955203 -0.06749467 -0.011803451 -0.07848106 -0.009853429 -0.0077169407 0.068995796 0.021131314 -0.0753292 -0.060828194 0.0656262 0.070894144 -0.0932632 -0.027873248 0.042796634 -0.0060048513 -0.11124389 0.09712408 -0.059604544 -0.047357798 0.038502827 0.019278942 0.0974167 0.03504576 -0.0490982 0.06814819 0.07757126 -0.08182348 0.05049435 -0.01094364 0.02863219 0.06011292 0.05519151 0.002436639 -0.044506185 0.006793782 -0.071556345 0.030117553 0.009363699 -0.07017468 0.025566896 -0.072448656 -0.05809091 0.12037074 0.08196461 -0.052749492 -0.07317037 -0.08617505 0.05160261 -0.032358106 0.106995374 0.050150063 -0.014824125 0.058776334 -0.004844116 -0.05822364 -0.051156763 0.09108873 -0.04053088 -0.012177789 -0.064133145 0.016354844 0.044310894 -0.04603366 0.012513985 0.0056101475 -0.04693624 -0.02171786 0.021007618 0.060520697 0.045385443 0.03813185 -0.043956403 -0.034777123 -0.015172979 0.058025613 0.08236333 0.042698827 -0.06738542 -0.025430098 -0.038467146 -0.0045727096 0.06440964 -0.022326786 -0.021208279 0.106767505
or 0.045421697 0.105739415 -0.07933255 -0.11957774 -0.014403642 -0.114476725 0.027681105 -0.046466786 -0.020873046 0.0075114383 0.08730198 -0.033779457 0.12638763 0.0056537753 0.1409346 -0.08530442 -0.023809474 -0.09092012 0.03055863 0.038234975 0.028387187 0.06686557 -0.0206529 -0.11586612 -0.06230204 -0.077756405 -0.13655311 0.007321935 0.023504332 -0.13702029 0.036188655 0.057352144 -0.09208993 -0.04360702 -0.09872316 0.058657885 0.05036107 -0.03823026 0.009979461 -0.07669645 0.0068453862 -0.13359866 0.044200663 0.21054465 -0.0098573575 -0.068192706 0.013801512 0.09911762 0.033506095 0.026229052 -0.13999246 -0.045211405 -0.049077563 -0.09045425 0.094251424 -0.11121858 0.20882596 -0.2567825 0.023700505 -0.0074170586 -0.08997341 0.102516495 -0.02006297 0.008760978 0.1253237 0.047454905 -0.050244197 -0.055743124 -0.013985387 -0.025845295 -0.14773747 0.10889185 0.03870153 -0.07802933 -0.007911988 -0.0393009 0.07871002 0.074303135 0.06896368 0.07502237 -0.047242727 0.045098666 -0.05606934 0.009161906 -0.09114768 0.06593839 -0.053181384 -0.07736844 -0.076811455 0.1287274 0.110134125 -0.0121135255 -0.089850165 0.04490909 0.06830046 0.12506907 0.092195265 -0.04414464 -0.068067424 0.055039827
their 0.046289716 0.041872777 -0.029358458 -0.08009203 -0.0034566186 -0.019277312 -0.020804211 -0.023345115 0.008297877 0.13480273 -0.021612752 0.068474606 0.036806688 0.11435504 0.113565326 0.0018845341 -0.06607199 -0.08390241 0.02220585 0.049778752 0.04373291 0.055276703 -0.035673805 -0.025854297 0.09789075 0.038575236 -0.07902392 0.008362727 -0.03428107 0.07109221 0.003684116 0.10446008 -0.08990194 -0.10921861 0.002141512 0.0647644 0.071351886 -0.070023045 -0.03715111 0.050218154 -0.0047946116 -0.042133734 0.042697445 0.072669305 -0.024643244 -0.059050385 0.18769768 -0.053283863 -0.0017073901 0.02253939 -0.037036844 0.08755584 -0.0693586 -0.09453595 -0.012939574 -0.124754444 0.039717887 0.22078207 0.012372903 0.0017535576 -0.07958122 -0.054411355 0.077670485 0.08357684 0.10382086 0.031845417 -0.054876857 0.021405375 -0.067125246 -0.08393298 0.0010880475 -0.102005884 0.03393413 -0.035617795 -0.07143481 -0.033881646 0.06160177 -0.09456502 -0.020598156 -0.022680402 -0.1132804 0.092168786 0.047072586 0.07277112 -0.014141129 0.077916384 -0.09699523 -0.06887116 0.034853384 0.0147576835 0.071058616 0.16934182 -0.06675372 -0.069783226 0.0035048684 0.02762473 -0.04402439 -0.040347118 0.068721294 0.008569436
nahum -0.01863876 0.063181154 0.039567143 -0.01093479 -0.07929659 0.0036274618 0.016414009 0.02934449 0.06711963 0.06346007 0.03511912 0.070902824 -0.05516166 0.07684976 0.09058263 0.08804909 -0.09922757 0.0011604753 3.614754e-05 -0.029093618 0.09854555 0.080395065 -0.009421418 -0.022441665 -0.09118787 -0.0192663 -0.019463498 0.0659935 0.019828111 -0.070832096 0.018127473 -0.016488105 -0.027161097 -0.012443638 0.016849322 0.12470905 -0.027597105 -0.047228098 -0.06519852 -0.16694966 0.028281808 -0.10169152 0.118483074 0.024695126 -0.027461328 -0.06359746 -0.05210044 -0.019394973 -0.0722978 -0.022197241 0.03855567 0.036670897 0.09469698 -0.059084214 0.002865387 -0.097323775 0.12767711 -0.18940392 0.116969205 -0.08293732 0.046035822 -0.083989546 0.104987904 0.048905447 -0.056365408 0.027958615 -0.087669335 -0.10359651 0.016132964 -0.06921134 -0.08867626 0.1911465 -0.024010284 0.03677753 0.04854839 -0.063445136 -0.048950393 -0.10386852 0.08364717 -0.004712751 -0.013984723 -0.04845466 -0.06267874 0.001188649 0.041153166 0.037471883 -0.057815243 -0.055195533 0.016392488 0.0066158846 -0.032785762 0.08990291 -0.012809503 -0.008386286 -0.022499846 0.038610023 0.06780274 0.020054337 -0.096419655 0.089911826
been -0.039898045 0.04810689 0.007701966 0.06676725 0.10901472 -0.2517667 -0.1422222 0.0017479396 0.033736467 0.09748093 0.07843413 0.035446614 0.11517803 -0.1146465 0.122619756 0.059462316 -0.073659174 -0.18947598 -0.081357606 0.066445775 0.012790879 0.001982022 -0.13549387 0.10243146 -0.0073141837 -0.045851864 -0.16405658 0.05765248 0.04548478 -0.02912201 0.18345658 0.032193772 0.10683776 -0.1296679 -0.04591059 -0.06513435 0.008878638 -0.13048577 -0.052010063 0.16024245 0.14540786 0.060410794 0.03436279 -0.1617835 -0.15932478 0.058467768 0.058202792 0.066448525 0.046595257 -0.045044564 -0.0122057805 -0.1512208 0.14006497 -0.124630764 -0.11229514 -0.14703636 0.05885431 0.13848186 0.041836515 -0.06057953 -0.14737295 -0.041717976 0.00095665443 0.11518645 -0.021603629 -0.19079548 -0.012392946 0.07463645 -0.18659574 0.16132662 -0.028279455 -0.12515438 0.07459449 -0.14508723 0.05064419 0.16635738 -0.12518406 -0.12005675 -0.13319498 -0.16974346 0.07104772 0.1612024 -0.02841406 0.113392405 -0.09824281 0.05654871 -0.19054288 0.07548834 0.120738976 0.13430998 -0.057090167 0.10238465 -0.12144536 0.08452249 -0.13228825 0.027396372 0.08511134 -0.093867116 0.00730206 0.062488407
seemed 0.12550662 0.12840275 -0.08662584 -0.06787051 0.13883997 -0.0787852 0.041134648 -0.11589754 -0.039402753 -0.01995223 -0.008832497 0.020524386 0.16761225 -0.021003298 0.08258919 -0.024612844 0.06511844 -0.13813612 -0.026607618 0.043605853 0.17262878 0.0058600716 -0.034579437 0.08985659 -0.04250936 0.056772687 -0.17232496 0.091220364 0.046580654 -0.11019316 -0.037433136 -0.049217265 -0.05089221 -0.12995623 -0.0035816072 0.10568833 0.06772844 -0.20375761 -0.15462348 0.099542975 -0.082779326 -0.07088675 0.11787934 -0.091609195 -0.11983652 -0.026182925 0.0801845 0.07341892 -0.100410454 0.013219759 0.011405961 -0.045489095 0.019545844 -0.15234321 0.0631248 -0.031316742 0.07151243 -0.06659141 0.023820044 -0.09534932 -0.15933637 0.09208211 -0.118039355 0.04883665 0.107350856 0.10958355 0.07565984 -0.12357701 0.109481595 0.0079398025 -0.07045612 -0.15524185 -0.08186389 -0.18496892 -0.061808627 0.12090477 -0.047039915 0.06448593 -0.16314767 0.09332113 -0.115881726 0.05560403 0.059492815 0.041032005 -0.1164239 -0.01923985 0.0067873 -0.0288249 -0.060053818 0.1459558 0.05920533 0.054928057 -0.14551872 0.15220778 -0.11609155 0.013944249 0.09021262 0.10803359 -0.08297805 0.1788412
an 0.010380116 0.019875329 -0.022328153 -0.08645341 -0.12031977 -0.0861356 0.10592675 -0.013012031 0.04900962 0.061843574 -0.026822835 -0.041740503 0.034729827 0.09109468 0.07164999 -0.082847625 0.0099264085 -0.027840363 0.07078648 -0.06441222 -0.053225983 -0.03078364 -0.07568483 -0.061136853 0.042673934 -0.091396034 0.00093058334 0.04478486 -0.014080228 0.050179135 0.062111467 0.059379715 0.027474912 0.010194682 -0.14106087 -0.0037365102 0.08678217 -0.06003251 0.035371356 0.054534208 0.0149393 0.011612015 -0.029818647 0.051840845 -0.027850702 0.031727128 0.015852865 -0.037562978 -0.012719789 0.045091085 -0.08474297 -0.13710947 -0.03292745 0.080594994 0.042209934 -0.014672279 -0.012250236 0.10710318 0.015976977 0.046960063 -0.04202716 -0.035182387 -0.012584631 -0.10536454 0.03599271 -0.020556368 -0.011942774 0.061197 0.020669956 0.084954694 0.016190607 -0.009518981 -0.014957265 0.030545719 0.03567496 0.018710634 0.059735112 0.0067657703 0.042337187 0.052387983 -0.03242145 -0.04401268 -0.051692873 0.02026039 -0.008477047 0.0070115034 -0.007417085 -0.009425441 0.099423714 0.07730684 0.08913515 0.01736593 -0.09716282 -0.030945614 0.14180203 0.07401697 -0.06754402 -0.008611472 0.056389075 0.004620704
before -0.016845617 0.056424886 -0.03948215 0.07596931 0.05257102 -0.040048227 0.10978785 -0.01876571 -0.021094795 -0.060574148 0.09651996 -0.041055918 -0.03990929 -0.055787373 -0.048366766 -0.07324467 -0.07894458 0.041317973 -0.006595206 0.02228745 0.11242307 0.07106382 -0.007896044 0.022617936 -0.02631279 -0.012775867 0.07249809 -0.05207699 0.024440933 -0.041808654 0.06993298 0.051799133 -0.038455993 -0.005518846 0.03742647 0.07235705 -0.067286074 0.057752095 0.016201371 0.047065135 0.0112104 -0.112193696 -0.06272356 -0.083237246 -0.05032274 0.044674687 -0.11110977 0.096895196 -0.07326034 -0.049616978 0.018745387 -0.028897496 -0.02204308 -0.03520631 0.029408546 -0.034943093 0.065426596 -0.016673442 0.06613262 -0.037110936 -0.007457244 -0.086032756 0.06863252 -0.006844173 0.02673851 -0.006689844 -0.056316644 -0.025015444 -0.045626186 0.08882946 -0.03528353 -0.041965082 0.044929266 -0.036856342 -0.0061446615 0.02965047 0.060785543 0.01857726 -0.04611627 0.04532523 -0.04963228 0.0057437695 -0.08721309 0.00830044 -0.001602753 0.06304179 0.043704234 -0.056447875 0.001872754 -0.067023434 -0.01822332 -0.122558005 0.026750365 0.06758706 -0.0014983128 -0.09505047 0.043332614 -0.023652049 -0.04005258 -0.02098052
out -0.03085988 0.03292752 -0.076043636 0.045287363 0.022696204 -0.043498587 0.06612561 -0.03654878 -0.012276684 0.0882792 0.028535457 -0.08392688 0.041489776 -0.03263544 0.020160163 -0.05555907 -0.044138752 -0.021754239 -0.016890822 -0.061133016 -0.020685423 -0.0015172195 0.0067874272 0.009950745 0.0066431137 -0.050954618 0.026164982 -0.038348753 0.068245925 0.08627728 -0.008194555 0.036719516 -0.024943775 -0.004750367 -0.050745193 -0.009503059 0.047053363 -0.040216852 0.01196971 -0.070388705 0.055846516 0.024868978 -0.06056997 0.097339146 -0.0050852606 0.07269997 -0.027829982 -0.0032062973 -0.09836742 0.040608387 -0.030534064 -0.04543381 -0.12268442 0.04761123 0.023758028 0.025090514 -0.052014936 0.008967747 -0.0033037663 0.07728811 -0.018697275 0.022838373 0.089176744 -0.08758241 0.03834895 0.08049039 0.009954627 -0.02386261 -0.077827364 0.06425944 0.044577025 -0.11023383 0.00089379644 0.054259054 0.09226835 -0.08962135 0.058723524 0.010570231 0.060709666 0.11616985 0.05561567 -0.102398805 -0.041428383 0.03513008 0.032880086 0.07967602 0.035297275 -0.073329076 0.027865682 -0.039054703 -0.014586879 -0.02188741 0.04807361 -0.0119242845 -0.012505764 -0.016346121 0.0032444568 -0.05000476 -0.009691367 0.008526906
very 0.048350237 0.09509543 0.009490062 -0.039387863 0.051764257 -0.026248526 -0.034094635 -0.057107117 0.08542897 0.10430934 0.0064875176 0.058800418 0.09735672 0.062845826 0.05011445 -0.057534777 -0.044831906 0.04730443 0.13011524 0.011076067 -0.00035163108 0.050098736 -0.08758496 -0.036876574 -0.019049056 -0.056417808 -0.0741618 -0.0068349494 -0.059879746 -0.08101951 0.11889937 0.075451985 -0.038246132 0.016036857 0.033225104 0.0027625714 -0.022672517 -0.12798451 0.041662116 -0.0017225107 0.02704862 -0.054010767 -0.027361592 -0.03448586 -0.07245548 -0.07386028 -0.023143215 0.056311082 -0.045815412 0.048493303 -0.12083862 0.020637315 0.047826856 -0.014759442 0.049934905 -0.140363 0.012799199 0.026277827 0.024516542 0.015425892 -0.054287985 0.04134921 -0.021359202 -0.03537485 -0.0401294 0.053543296 -0.036038067 0.036423303 -0.15433507 -0.039255958 -0.01375829 0.06784882 0.031425778 0.024671936 -0.0072473143 0.043998394 0.066803694 0.053833272 0.05673163 -0.048527393 0.0098715825 0.009623952 -0.018012783 0.029227076 0.068470314 0.018370353 -0.05702302 -0.060120802 -0.021652393 0.004071294 0.035669982 0.05226681 -0.06091945 0.021876689 -0.1329179 0.11115844 -0.035629787 -0.09521346 -0.06791839 -0.012405778
have 0.09291687 0.02768482 0.047820184 -0.07587648 0.24925353 -0.17895776 -0.07626628 -0.06683575 0.013749898 -0.01675395 0.062668495 0.011453841 0.12577473 -0.010508731 0.010630394 0.082906574 -0.06980269 -0.0204971 0.012702446 -0.030566327 0.12298524 0.031454004 -0.053829145 0.11315327 -0.043657485 0.026069034 -0.023930956 -0.0645194 0.016097074 0.007672468 0.032795805 -0.009135954 0.15610422 0.019374477 -0.07518335 0.060378414 -0.01030737 -0.050201826 0.068568386 -0.09674824 0.07452416 0.01643176 -0.051032525 -0.19257237 -0.09384275 -0.017816976 -0.1535067 0.030785656 0.0041596424 0.012552282 0.10222409 -0.05127483 0.12541637 -0.19973174 -0.015613828 -0.074090764 -0.018796857 0.16743231 0.002109777 0.015375801 -0.1378083 -0.032025 -0.06896651 0.020323716 -0.022149509 -0.07902187 0.040375177 -0.1236444 -0.032727208 0.10792031 0.008271376 -0.13282487 -0.12620822 -0.02018818 0.10461097 0.04868875 -0.007640775 0.012491235 -0.026510425 -0.02797541 -0.07041403 -0.09681412 -0.059164915 -0.06507917 -0.09366805 -0.030842131 -0.05006833 -0.08335253 0.108992524 0.12676305 -0.025274538 -0.113571055 -0.026578914 0.033480063 0.05392282 -0.0054819183 0.04364164 0.07420262 0.05336001 0.11269171
where -0.03443157 -0.07029115 -0.027856374 0.02632614 -0.017759817 -0.06688427 0.050848063 -0.02350839 -0.07142055 -0.022523966 0.12251203 -0.0042111366 0.072622515 -0.06856946 -0.027772859 -0.0031252326 -0.054479647 -0.009972913 0.007930802 0.11272798 0.08760136 0.08869214 0.08472123 0.06137206 -0.027304392 -0.045601532 0.035971183 -0.036555387 0.066409595 -0.05703327 -0.053372722 0.060120407 -0.09813294 -0.019241188 -0.113997705 0.06167057 0.011629439 0.06800364 -0.10665064 -0.084416784 0.039936446 -0.062402356 0.0065816124 0.08256987 -0.09448351 -0.061677802 -0.029397724 0.063448 -0.048820287 -0.0958009 -0.082780756 -0.11779509 0.026836116 -0.056966025 0.026649758 0.015928138 0.0056457943 0.017725939 0.04271481 0.05915863 -0.060621686 -0.03766083 0.06881456 -0.03584836 -0.009014857 0.016947184 -0.0809234 -0.11135703 -0.030092712 0.056495063 0.068134226 0.027174754 0.075841896 0.017601158 0.108058386 -0.057473216 -0.070112765 0.06430483 -0.012715021 0.04535846 -0.086021096 -0.032538146 -0.05210714 -0.0107825175 0.010145241 0.037222587 -0.0029263597 0.021405531 0.071883306 0.0018689974 -0.047184005 -0.10406667 0.052111704 0.13496107 -0.1442358 0.001636768 0.10401545 -0.08128344 0.0039364975 -0.015526591
city -0.10826224 0.081279576 -0.008215638 0.118754864 -0.16716534 -0.049642745 -0.048731416 -0.05050534 -0.032876592 -0.061872393 -0.035601474 -0.14977898 -0.004488904 -0.096709706 -0.051050436 0.040610097 -0.099857934 0.10312238 0.11505065 0.15616399 -0.08608466 0.11708267 0.107896 0.02142125 -0.08090706 -0.034944963 0.15127197 -0.11824291 0.060257133 0.078027055 0.062458873 0.065286905 0.089436665 0.056560155 0.03584102 -0.102804266 0.020918176 0.07445162 0.14354557 -0.10249626 0.049371425 -0.13447891 -0.017957307 0.0033979483 0.040394302 0.1300917 -0.11511425 0.12331864 -0.15053144 -0.015362605 0.081985384 -0.0063771135 -0.08096568 0.1049607 0.05479044 -0.058578532 -0.07526873 -0.119927526 0.014056949 0.069251925 -0.08326066 -0.1590651 0.09777862 0.055147965 -0.06818924 0.05493333 -0.036348633 0.21183127 -0.07193834 0.15948482 0.11293019 -0.08008036 0.13497195 0.03070235 -0.0021009722 -0.19915375 0.07675214 0.022035532 0.0796424 0.073720075 -0.06772762 -0.092734665 -0.018642258 0.024761094 0.22830592 0.03375248 0.11033267 -0.05693211 -0.08942234 -0.07078888 -0.08602695 0.050221786 0.094083875 0.063451596 0.06655099 -0.079473495 0.012649264 -0.0097697275 -0.045880694 -0.002837391
only 0.019552093 0.01709722 -0.009054809 0.008925705 -0.10808143 -0.10086341 -0.024669329 -0.06766998 -0.0117764715 -0.04882448 -0.04225714 0.007188986 -0.007638634 -0.042504914 0.04695228 -0.14087121 -0.00055604114 0.030439876 0.06494205 0.08894587 0.05207854 0.021178918 -0.0505191 -0.013259436 0.008141971 0.07131254 0.0166406 -0.052565612 -0.016269559 0.033231433 -0.07214963 -0.028781898 0.004587235 0.029874375 -0.04041614 0.07654552 0.052451104 0.040277462 -0.014066234 -0.0075953095 0.064082436 -0.09733868 -0.07060405 0.03218477 0.04451857 -0.011277885 -0.023732012 0.123265155 -0.08238863 -0.027868599 0.05605979 -0.020532297 -0.082192816 -0.12800863 -0.009490722 -0.10795451 -0.013431942 -0.14157604 0.009261876 0.04000525 0.00029077329 0.013653503 0.024660384 0.07000352 -0.0035233144 0.012616826 -0.05353694 0.04914377 -0.05110656 0.061394464 -0.014286881 0.0008724346 0.05332559 0.04225357 -0.07886822 -0.09990719 0.08630208 -0.021966731 0.028229175 -0.013743359 -0.07786588 -0.019517174 -0.007530299 -0.01889619 0.07188128 0.06867918 0.04823991 -0.08016433 0.03171988 0.014720176 -0.017804269 0.01364625 -0.011195988 -0.026214598 0.09455625 0.0725362 -0.03694252 -0.0011085452 -0.023636451 0.002347379
into -0.054522634 -0.031008517 -0.09916399 0.12385692 -0.033621907 0.035929587 0.011216579 0.028113816 -0.067512535 -0.051283725 0.07393479 -0.06513784 -0.011969544 -0.04879436 -0.08247351 -0.045258082 -0.15633816 -0.019491222 0.046200804 0.043348078 0.08139633 0.007882786 0.018170746 0.026317371 -0.091697566 -0.083705924 0.013802217 -0.0581598 0.04144328 0.0055045793 -0.053060237 0.030410739 0.02166995 -0.03622073 -0.07244256 -0.011926394 -0.0036447132 0.06635548 -0.11297625 0.09748693 0.09654754 -0.04051217 -0.114051394 0.010076736 -0.12257052 0.049404096 -0.08791542 0.109941915 -0.007052247 -0.086572975 0.09578731 -0.043683533 0.0034837178 -0.035679642 -0.026360864 -0.04344687 -0.04705117 -0.08374947 0.057877764 0.02288853 -0.027579859 -0.060128566 0.06092211 0.04839901 0.007869505 -0.040203966 -0.073077075 -0.0058558327 -0.08204251 0.06265266 0.045741815 0.046145473 0.036380768 0.014299496 0.08292808 -0.0016491319 0.06609289 -0.004783088 -0.033451788 -0.017767293 -0.017423358 -0.039941344 -0.07978787 -0.017635021 0.010234423 0.0029265024 0.05017126 -0.02674394 0.11314712 -0.018107533 -0.022015564 -0.10391756 0.047641143 0.090363495 0.027801586 -0.09336605 0.09009842 -0.008440902 -0.0101907775 0.048197594
man -0.11293902 0.05580617 -0.07474453 0.12830287 -0.029327817 -0.022113 0.028750509 -0.08932545 -0.084782384 -0.049138546 0.02427347 -0.007667217 0.095606044 -0.04054391 0.0003693424 -0.122938365 -0.05292918 0.06913301 0.0069545014 0.08986032 0.15454753 0.02594507 0.12288106 -0.048315365 -0.05124074 0.0136786755 0.038152717 -0.01315134 0.014545581 0.023596754 -0.037191074 0.07213188 -0.06000946 0.072934784 -0.05752609 0.079399884 0.0063576316 0.055831373 -0.06431677 -0.02235865 0.055885334 -0.035647128 -0.050925285 0.124972574 -0.0711272 0.03993782 -0.10404634 0.0004929218 -0.061394107 0.021339186 0.024565274 -0.030218523 0.0021092752 -0.08394586 0.029650655 0.030442756 -0.049023382 -0.028436478 0.032458324 -0.021345822 -0.082966134 -0.073970355 0.040319365 -0.02182906 -0.10776428 -0.035923168 -0.09295879 0.018151125 -0.09869565 0.0625052 0.017086754 0.06669011 0.014848786 0.039662387 0.104892 -0.013926351 0.040280182 0.036918957 0.0444865 0.04136819 -0.08401261 -0.0020074039 -0.117915116 -0.027698522 0.04082386 0.04578916 0.03731345 -0.032019876 0.036384583 -0.002076504 -0.1507617 -0.035258044 0.07867936 0.023421656 0.024917938 -0.092094734 0.09880661 0.005617463 -0.032126166 0.025306862
strange -0.08141154 0.02164815 0.018281197 -0.027521487 0.04461357 -0.0064058127 -0.005693988 -0.030865168 -0.0027343663 0.025286743 0.020442534 0.031578884 0.0073511205 0.048190728 0.020379247 -0.052249968 -0.055962395 0.037329797 -0.052895013 -0.021393673 0.038328826 0.028136156 0.017963894 0.06322624 -0.026800238 0.016745424 -0.05046473 0.057036243 0.048714764 -0.0026134397 -0.024830494 0.024682026 -0.030271852 -0.009019538 0.034547932 0.024612203 0.033767413 -0.007114727 0.01379275 -0.09643233 -0.025148693 -0.065499075 0.043398403 0.025141397 -0.034838434 -0.058071297 -0.01584641 0.008170948 -0.06745011 -0.011182383 -0.04709779 0.0070591187 -0.022872359 -0.054817 0.08841872 -0.035305433 -0.05224965 -0.04427898 0.0050960127 -0.0258788 -0.062057693 -0.041803487 -0.017171793 -0.10684199 -0.011596628 -0.00071578275 -0.033321686 0.006049908 0.021896595 0.02850871 -0.051142253 -0.0010191608 0.004046305 0.010761437 0.110769734 -0.08350899 0.046777993 -0.009349525 0.042249355 -0.04128204 0.0022777524 -0.0435457 -0.0062106093 0.07257147 0.012699701 0.024834659 -0.019786276 -0.003102005 -0.007480411 0.058401413 0.0412304 0.0010922917 -0.011251571 0.04237596 -0.076577984 -0.0013723526 0.0011937742 -0.047478136 0.038162176 0.008591912
what 0.06259416 0.019692648 -0.010475986 0.04162427 0.092016615 -0.033889394 -0.0034729368 -0.030474756 0.015205275 0.008364825 0.057585284 0.055502314 0.028949615 0.002546329 0.055307485 0.020945491 -0.0061910134 0.022114862 -0.0144551685 -0.041111745 -0.019123742 -0.0030307875 -0.04415974 -0.030098002 -0.08432157 0.013160658 -0.036697246 0.0585723 0.0555131 -0.06330571 0.075325795 -0.07132458 0.05599107 -0.01737197 -0.03136068 -0.009160288 0.021863006 0.02489427 -0.021150457 -0.055366125 -0.040552344 -0.041269954 0.026921816 -0.012076987 -0.053470004 0.019618882 -0.035084616 0.015626177 0.0025655446 0.09395449 0.015377886 -0.062396955 0.046436552 -0.08008458 0.07687312 -0.07480648 0.033354577 0.10860254 0.031503018 -0.05154006 -0.05870191 -0.009145103 -0.052553933 -0.025688287 0.045375567 0.06943911 0.036799613 0.01668562 0.032232054 0.08068204 -0.044480532 -0.00028554606 -0.01867097 0.025036503 0.072423935 0.03744642 0.023649385 -0.066006206 0.06572896 0.085329 -0.03758362 -0.097479075 -0.026678855 0.03438873 0.00094691943 0.056363337 -0.11478894 -0.036030937 0.11567807 0.08741136 0.015879584 -0.005401259 -0.08186416 0.060757503 -0.054723192 0.040188935 0.07595105 -0.07540259 -0.021084601 0.03955167
place 0.08661271 0.004972446 0.015231305 0.024822641 -0.040789668 0.011687363 -0.04620099 -0.03976836 -0.04088627 -0.08897299 0.0522675 -0.010865819 -0.0419084 0.036247145 -0.04501017 0.00643886 -0.1281622 0.1131164 0.044330478 0.11245979 -0.008996089 0.06970191 0.111167364 -0.0033323127 0.0008255169 -0.029539095 0.07055603 -0.06512987 0.042046912 -0.046776835 0.043619007 -0.069757454 -0.016022736 -0.0014025411 -0.02973014 0.010075533 -0.06853642 0.031692594 -0.04297429 0.033933643 0.06355285 -0.07299283 -0.0901794 -0.09567021 -0.099739626 -0.009251505 -0.046143495 0.09405414 -0.0049598874 -0.014180501 0.10022692 0.08257964 0.036825523 -0.06652679 0.017994277 -0.052940484 -0.059135947 0.0040582772 0.047707483 0.05587273 -0.038192764 0.006819224 -0.04015861 0.0060878694 -0.0009069467 0.027335467 -0.06845604 0.041953713 -0.06974141 0.010148796 0.042323243 -0.11037394 -0.008295721 0.046200123 0.083278775 0.056912355 0.043420825 -0.018627256 -0.040669933 0.04622151 0.05369471 -0.05497968 -0.12884833 -0.09997947 0.014794094 0.06323722 -0.005088567 -0.0048442297 0.097207725 -0.03381947 0.018020958 -0.024552297 -3.7848717e-05 0.113838375 -0.0620043 0.00827723 -0.016269766 0.014042975 -0.025709448 0.0052076057
like 0.07523849 0.019653112 -0.02309217 -0.10688044 -0.09285852 -0.10177702 -0.0115912445 -0.082557574 0.029364426 -0.013648942 0.051863067 -0.018808179 -0.0062579582 0.04419252 -0.043055505 -0.057034522 -0.05623194 0.018418767 0.02785482 0.07859336 -0.0027804722 -0.013329776 -0.0054294923 -0.022215676 -0.031326048 0.017715592 -0.02693406 0.007006629 -0.02094404 -0.028094498 -0.019857764 -0.08877018 0.071953796 0.0031213597 0.008028676 0.031888023 0.09171607 -0.014242047 0.00044734776 0.084085554 0.048117634 -0.046492912 -0.05000641 0.07912347 -0.052529983 0.04865727 0.032360904 0.068237886 -0.014087856 -0.03556894 -0.003560506 -0.041765783 0.005678793 -0.01051815 -0.00699016 0.035153367 -0.00081266894 -0.04587531 0.020150606 0.07298443 -0.008185807 -0.064586595 -0.01078042 -0.009403709 0.0036696063 0.01217483 -0.06386934 -0.03056022 -0.0017454951 0.033343647 -0.0839195 -0.12056282 -0.08732301 0.019517267 0.019293712 -0.04808531 0.028313514 -0.0046767932 0.009582608 0.0410562 -0.010897088 -0.066338055 -0.02849862 -0.025417764 -0.053945914 -0.016865982 0.021955747 0.00044304656 0.13615067 0.019056814 0.048258174 -0.05839282 -0.039914485 0.056989722 0.048181366 -0.020830913 -0.017833121 -0.040598772 0.06664739 0.024551198
about 0.0046470673 0.059748106 -0.07323445 -0.014290847 -0.07525597 -0.020826133 0.05786134 0.037360393 -0.07267946 0.0010613096 0.026376605 0.004353617 0.05499389 0.040125497 0.013042087 -0.097115204 -0.07397714 0.032691024 0.13801906 0.10200504 0.06199175 0.051052447 0.07759508 -0.042171977 -0.053026196 -0.009513871 0.048292443 -0.07928238 -0.00838942 0.05741261 -0.04988744 0.050024953 -0.06580115 0.024154907 -0.009605307 0.09628729 0.038762685 -0.0064714653 0.021892687 0.0069702324 0.092162885 -0.07316977 0.0060880664 0.092633866 -0.102362275 0.04323927 -0.024035892 -0.05601807 -0.0030181531 0.019746631 -0.0015683412 0.009969056 -0.06690473 -0.004812516 -0.030215252 -0.016929325 -0.0004811359 0.03791576 0.062102333 0.0951769 0.00077873963 0.018504176 0.03741329 0.010502857 -0.050766487 0.05594325 -0.0048716604 0.0044313655 -0.03410795 0.078267604 0.036707923 -0.077745385 0.0048482115 0.0411665 -0.009792682 -0.07220145 0.05778425 -0.026398288 0.026613576 0.06708162 -0.057007067 -0.05528101 -0.13030988 -0.056637533 0.033959135 0.009516325 0.030558832 0.008792603 0.050671283 -0.015517613 -0.05461204 -0.049132284 -0.012401395 -0.03899092 -0.015201947 -0.0074595786 0.0029037737 -0.016421678 0.0115295015 0.032315195
through -0.13969395 0.05757316 -0.080320485 0.07553649 -0.07382587 0.012342995 0.147107 0.062011614 -0.071570195 -0.11453941 0.15365617 -0.11619358 -0.081180036 -0.11417673 -0.08431049 -0.0053048767 -0.050488785 0.1260866 0.009957469 0.11864511 0.032792583 0.15985797 0.09763776 0.08329544 -0.109945975 -0.11355999 0.10128925 -0.084393844 0.16532005 -4.972797e-06 -0.09883046 0.020664424 -0.0937726 0.08461356 0.11136215 0.087916784 -0.009666494 0.16133903 -0.12583458 -0.008845269 -0.053002633 -0.10694105 -0.09118538 0.13002539 -0.09957189 0.10843939 -0.102684766 0.06324794 -0.1159986 -0.088866584 0.035958745 -0.040539883 -0.03358783 0.03259747 0.17261943 0.013264831 -0.17860599 -0.102751784 0.074257545 0.047704786 -0.06694902 -0.039201576 0.11028352 -0.050119065 -0.07785846 0.056384757 -0.1703942 -0.14596125 -0.05384589 0.049131647 -0.0034909407 -0.038187686 0.12638676 0.15880549 0.116291285 -0.10762468 0.12185863 0.039411217 0.070639566 0.04400437 -0.0149894655 -0.016743505 -0.06893802 -0.08557852 0.15612946 0.05833254 0.11442989 0.010498017 0.15474689 -0.100112535 -0.15802076 -0.14068116 0.10010205 0.11167525 0.0038557476 -0.12978193 0.12877093 -0.07437157 -0.20829509 0.036664553
some 0.058422416 0.056540024 -0.07603652 -0.119960055 0.06592234 -0.052518785 0.0055303983 -0.054131377 0.067744784 0.101583794 -0.030392425 0.027778829 0.06976757 0.013271472 0.043803807 -0.055111993 0.0043109483 -0.058314197 -0.01939065 -0.021974977 -0.049244225 -0.04780355 -0.052733425 -0.015988193 -0.054427322 0.012704869 -0.0699147 0.087795 0.018150257 -0.03255686 -0.01504507 0.038408987 0.053744398 -0.08930442 0.025207855 0.026264844 0.049748935 -0.07051396 0.05750098 0.013796229 0.037994053 -0.050721683 0.042281415 0.10833051 -0.060958076 -0.045459736 0.040557917 0.048865326 0.069943756 0.011978245 -0.039501134 -0.040888198 -0.02717101 -0.06981606 -0.00813273 -0.021489888 -0.02469827 0.04878579 0.060460456 0.05401578 -0.060567204 0.06574543 -0.024487734 -0.0054778894 0.013618728 0.005322901 0.024571668 -0.0353421 0.054722846 -0.032639198 -0.026923109 -0.050443795 0.0661216 -0.015102179 -0.06635892 0.028051358 0.045078788 -0.04144306 0.02679934 0.040212784 0.015174624 -0.008371854 -0.061711334 0.02636984 0.016122032 0.01293871 -0.07339009 -0.04464033 -0.02764709 0.05868343 0.016424721 0.06032472 -0.072142586 -0.0034290128 -0.06997934 0.06986149 -0.04607268 -0.098844916 0.0013749957 0.10216798
did -0.032028586 0.13099937 -0.101207584 -0.13853925 0.14825793 -0.11373478 -0.09575208 -0.14364883 -0.0131347645 0.10568342 -0.026387557 0.045512017 0.07124632 -0.1112129 0.076001704 -0.09991272 -0.17806838 -0.086445965 0.06191659 -0.00029231107 0.1262988 0.009908546 0.08169774 -0.13869359 -0.058717255 -0.0011276845 -0.1157244 -0.0012045191 0.061134547 -0.06600671 0.09475425 -0.16699468 0.07264567 -0.0035686092 0.035866074 -0.034993082 0.018636774 0.069010876 0.12693843 -0.13909362 0.13158973 -0.10100308 -0.14176007 -0.16598165 -0.07279162 0.065839946 -0.07803135 0.14032854 0.03437902 -0.037534572 0.009568405 -0.0033129859 0.0958302 -0.08945471 -0.090254016 -0.11163937 0.07135974 0.07783339 0.10049282 0.035861634 -0.08857815 0.01312554 -0.12693344 0.015417386 0.047873426 0.1327351 0.05601738 0.1303869 0.02317021 -0.11843369 -0.08786126 -0.10923973 -0.10719302 -0.0886189 0.058981787 0.20663676 0.13329704 -0.021472957 -0.16037476 0.11744753 0.021668063 -0.013248118 -0.10564899 -0.05011034 -0.108124524 0.120307565 -0.006020795 -0.15538001 0.18416241 0.104911506 0.01873764 -0.086692564 0.03018672 0.025762072 0.023853725 0.07495081 -0.011210388 -0.09619571 0.03828326 0.044194456
though -0.027019188 0.03137138 -0.05906694 -0.018777663 0.045807917 -0.0641626 0.060838517 0.023472894 -0.08469911 -0.03348158 0.11505689 -0.008382524 0.05253917 -0.006751986 -0.03158207 -0.15916292 -0.031007033 -0.005199614 0.17650327 0.02008911 0.08584127 0.020549547 0.003506323 -0.006620732 -0.07994254 -0.060462587 -0.0068881055 0.005837463 0.019215617 -0.01592553 0.006968281 0.045912232 -0.00022171822 0.029565834 -0.01457404 0.07097428 -0.15172824 0.011857605 0.014142294 -0.0370167 0.0674306 -0.05231552 -0.010958301 -0.032299712 -0.042772386 0.026896793 -0.022907399 0.03729447 -0.09182319 -0.0067854933 0.049081754 0.01309758 0.027921995 -0.035348803 -0.015805608 -0.045037128 -0.008533697 0.0075131403 0.053213343 -0.026382834 0.024692643 -0.03047071 -0.03368237 -0.048024002 0.03168904 -0.0032764073 -0.075031385 -0.041630626 0.006054188 0.020869164 -0.026323752 0.021133907 0.0065535144 -0.007741521 -0.008295902 0.046283897 0.041087616 0.051075175 -0.030981805 0.050707426 -0.007947663 0.024961205 -0.0716121 0.022213506 0.038564604 0.04145629 -0.071769774 -0.0431876 0.16845223 0.033549655 -0.0049628154 -0.053687833 0.027589373 0.038138703 0.014944493 -0.002476174 0.07634217 -0.05914454 -0.10237518 -0.039670806
more -0.020515058 0.0118899355 0.0321359 -0.08310555 -0.0036214534 -0.0074285883 0.0019114866 -0.051223993 0.045360036 0.03639089 0.1506472 -0.044714916 -0.0033216565 0.10569178 0.021990338 -0.068228826 -0.10470488 0.0038236114 0.05341865 0.0031401555 0.07736029 0.09127904 0.08235372 -0.07424782 -0.09794569 0.008928735 0.015709609 0.08368167 -0.004458689 0.006837345 0.027709952 0.058555394 -0.071693175 0.021017492 -0.025295462 0.11300555 -0.024606127 0.056879327 0.03812628 -0.03325258 0.09334155 0.0149980225 0.039011806 -0.09443206 0.056000505 0.005535964 0.06402244 0.036703523 -0.09723523 0.013512816 -0.06988808 0.037838936 -0.0050262893 -0.01805929 -0.083963946 -0.08811837 -0.057570476 -0.03540814 0.05165291 0.007843221 -0.0057419464 -0.1141456 0.13388132 0.036278713 0.090559125 0.039712403 -0.12176768 0.017897433 -0.0807592 -0.05357259 -0.036858752 -0.044610597 0.07608248 0.008842684 -0.02896521 -0.04396443 0.16394128 -0.038355447 0.053500425 0.09776882 0.027836286 0.0427173 0.014883029 -0.025039626 -0.059782796 0.12389216 -0.07740639 -0.004351356 -0.00070358755 0.028126786 0.052381486 0.05635997 -0.0129330335 0.05026473 0.0421815 0.02413383 -0.033488557 0.085413046 -0.08358672 0.017075455
now -0.08045111 0.025541864 0.02138512 -0.040295765 0.03189369 0.023592846 -0.012684959 -0.07088414 0.028890876 0.06067375 0.02490163 0.09244284 0.07421363 0.024654811 0.012033679 -0.0050119073 -0.040581007 -0.08680599 0.09325434 -0.07027041 0.107789226 0.072933644 -0.02353593 0.058762558 0.031018952 -0.03424232 -0.11247656 -0.0048805177 0.018318534 -0.070410095 0.06103035 0.11512962 0.013914657 -0.08508752 -0.0011576244 0.07084558 -0.07565852 -0.058366638 -0.083039515 0.028772704 0.040081207 -0.026648834 0.072517484 0.04060549 -0.0011135946 -0.034783594 0.056549422 0.056236327 -0.05331985 -0.0021172385 -0.044870447 -0.02872785 0.05640175 -0.08254428 -0.066553965 -0.10311334 0.09495687 -0.055059236 0.059386667 -0.057582464 -0.10827148 -0.026109148 0.009214664 0.032216154 -0.026035221 0.035407163 -0.021854997 -0.04018584 -0.121647365 0.005979808 -0.06798019 0.061919745 0.06273043 -0.0835377 -0.053423513 0.057256043 0.073112085 -0.022374801 0.0010669795 0.069478445 -0.071346276 0.045105945 -0.006086278 0.06526985 -0.01373671 0.027688146 -0.0068740575 -0.054365247 0.05600273 -0.0013518044 0.072460786 0.019472498 -0.050652545 -0.014660431 -0.0615437 0.023427118 0.11115882 -0.02144053 -0.029718198 0.1188247
down -0.01562881 0.03478939 -0.016728703 0.07798937 -0.09058714 0.011958871 0.10454991 0.028398644 -0.065253995 -0.091341205 0.03835923 -0.09406016 0.019518321 -0.05058901 -0.042550597 0.002928998 -0.028663483 0.09073722 0.056722794 0.023525286 0.031899247 0.10858045 0.04552685 0.08528072 -0.05235538 -0.08142156 -0.0008518966 0.049134005 -0.006787333 0.05281634 -0.086354494 0.049793366 -0.0586514 -0.01896194 0.035207354 0.064619884 0.056129858 0.12143486 -0.14002606 0.05717022 -0.02003448 -0.08706145 0.0013108479 0.10918633 -0.076741174 -0.05556747 -0.042396672 0.0026850281 -0.124568425 -0.07335025 0.03453838 -0.066853814 -0.0016102159 -0.04104365 0.1526969 0.04378374 -0.071108066 0.014586478 0.05264456 0.059644017 -0.07065197 -0.068605505 -0.013824061 -0.086807385 -0.014039299 0.051108345 -0.05318869 -0.10430889 -0.012111519 0.06587523 0.036745183 0.0056083966 0.04847724 0.12537706 0.006851638 -0.035140146 0.024150806 -0.007330774 0.07083003 0.028553026 -0.009813516 -0.078234576 -0.103343464 -0.07888455 0.054318212 0.0022779456 0.002604524 0.013967311 0.07545435 -0.020651199 -0.06594982 -0.07259838 0.051715456 0.07760073 -0.04690765 -0.07789859 0.095351696 -0.045532998 -0.09436578 0.053880118
night -0.09420088 0.06452958 -0.060194623 -0.011517001 0.046228457 0.035594232 0.0076523763 -0.010434614 0.0008046592 -0.043553505 -0.021983184 0.018405726 -0.00027437462 0.015205103 0.0010371343 -0.036997505 -0.015721418 0.0015048495 -0.029842634 0.04079677 -0.033174645 0.010193615 -0.029961873 0.03894288 -0.08579135 0.04891142 -0.009561951 0.065311745 0.04089304 0.03700195 -0.021947155 0.024671976 -0.045307506 -0.05282542 0.011400386 0.06027827 -0.06367113 -0.003524031 -0.036634304 -0.033301428 0.114515565 -0.042901475 -0.0020352597 0.11032096 -0.034781564 0.0934141 0.0315113 0.025427783 -0.02906567 0.01233447 0.015024306 -0.034139328 -0.054721583 0.0076460633 0.014447271 -0.053607196 -0.023664385 -0.04266502 0.016588619 0.072504826 -0.026565956 -0.01664773 0.075039074 -0.004229352 -0.052829266 0.044874478 -0.08069815 -0.049247622 0.0074146935 -0.006920067 0.045837138 -0.06309006 0.026118323 0.010588715 0.0073572146 -0.09792525 0.038212292 -0.034764886 0.07953754 -0.0032588888 0.0087008625 0.029289005 0.068807974 0.06381575 -0.064207286 0.028627234 -0.05127946 -0.045075975 0.029958343 0.010554203 -0.0149034085 0.060511135 -0.07277952 -0.08002964 -0.004017227 -0.031027773 -5.322881e-05 0.010689494 0.015274055 0.011191047
them 0.011903735 0.028335392 -0.043766323 -0.09787265 0.059770234 -0.02766487 -0.04281719 -0.06667583 0.03684457 0.045049466 -0.006386162 0.016080968 0.022040267 0.0043151146 0.06932618 0.006105399 0.046575945 -0.018408624 -0.050177768 -0.07367564 0.043118592 0.010033089 -0.06077941 -0.0666109 -0.030733 0.0036628055 -0.015461795 -0.0030472418 0.03227131 0.06362182 0.052299034 -0.057338394 0.045784 -0.047444757 -0.07283868 0.047852825 0.00018136122 -0.0049716504 0.013912215 -0.10226451 -0.053633716 0.0240845 -0.014169576 -0.005489546 0.0035054698 0.026862705 -0.021413095 0.052686166 -0.022564417 0.078243665 0.06332025 -0.022318624 -0.0068561574 -0.04553518 0.038234387 0.013017941 -0.016025212 0.013588141 -0.025531895 -0.037714485 -0.041658897 -0.01880181 0.06052748 -0.019452685 0.037994895 0.03366241 0.052846156 0.060599435 -0.026540224 0.013498607 -0.0323949 -0.042667106 0.0594511 0.03292878 0.06883395 -0.028448075 -0.024390189 0.03498449 0.015432097 0.11167752 0.001625568 -0.041048914 -0.021306941 0.050277486 -0.04521155 -0.017636796 -0.054807324 -0.06357755 0.04009309 0.059889752 0.08052785 0.07675997 -0.06333597 -0.04351638 -0.023915505 0.04968087 0.01604053 -0.03620245 0.072229005 -0.007647426
then -0.09925886 -0.0022059605 -0.028427802 0.05083353 0.05807536 -0.04348161 -0.0837185 -0.053669844 0.037499413 -0.062146302 0.05465371 -0.0018941446 -0.01561601 -0.016606074 0.05453499 -0.06389084 -0.107508056 0.038642816 0.013979827 -0.018671298 0.03864977 0.05281358 0.006296809 0.0429671 -0.06730214 -0.024978796 -0.06810926 -0.016067991 0.056174576 0.051794574 0.1231501 -0.06695491 0.07566468 0.03180599 -0.040792402 0.036471903 -0.07526976 0.01937087 0.02411854 -0.1008832 0.040598664 -0.02278019 -0.07630416 -0.006623272 -0.06527478 0.019881137 -0.107521355 0.017160892 -0.028598808 -0.005855377 0.06476048 -0.056650933 -0.0461141 -0.009653897 -0.036595587 -0.03779729 -0.07384429 0.07610859 0.018602666 -0.074581504 -0.0029198327 -0.031124791 -0.0077932756 -0.037703637 0.0448955 -0.012560633 -0.030363418 0.004890051 -0.09281917 0.069527894 0.016458504 -0.10143951 -0.013355845 0.019616293 0.081354834 0.030784858 0.0528337 -0.038124822 0.01949348 0.06581725 0.07060613 -0.043478068 -0.006400013 0.04283573 0.06494646 0.027006164 -0.027527077 0.01685709 0.07480005 0.032208696 -0.011766583 -0.027048249 -0.0482997 0.047552027 -0.018599613 -0.03282246 0.01425483 -0.03412438 -0.06977255 0.04983573
nameless -0.063235156 0.035258673 -0.08213635 -0.0038540661 -0.1981442 0.074158184 0.1381341 0.0035996274 -0.061197057 -0.013160424 0.062023774 -0.09636315 0.09258863 0.0013353614 0.038929373 0.03529429 -0.0038839728 0.029572403 0.055313077 0.0080248965 0.017300803 0.014484473 -0.092677236 0.11716636 -0.029213695 -0.06866839 0.036578216 0.0061576655 0.057164393 0.10849116 -0.063970886 -0.12251144 -0.07471635 0.0010471031 -0.0427966 -0.12241354 0.0024815593 0.08913779 -0.062236384 -0.16687162 0.09025382 0.014542871 -0.06624303 0.15184322 0.051829442 0.060852207 -0.12099883 0.004709033 0.00076759886 0.06570051 0.069736354 -0.005904793 -0.10836361 0.093352765 -0.044573106 0.0194057 -0.14674425 -0.09278401 0.057366047 0.022897085 0.054725654 -0.009703874 0.15784249 -0.09429153 -0.059352268 -0.016572982 -0.07411208 0.12751746 -0.07148936 0.10195546 0.0017825941 0.11529064 0.13017489 0.05227061 -0.007833257 -0.07754653 -0.029877095 0.056296512 0.15264593 0.07711715 -0.0134930955 -0.020679222 -0.00440588 0.012270804 0.0933344 -0.021330241 0.03216948 -0.09971082 -0.02136368 -0.08404744 -0.061105512 0.06897464 0.052309122 -0.059414517 0.11068157 -0.02679556 0.067285106 -0.05873042 -0.0055648643 -0.044739936
over 0.017486824 0.023852652 -0.010067079 -0.006688851 -0.17479315 0.03804935 0.069328934 -0.026160548 -0.06176408 -0.08728838 0.067884415 0.007206127 0.0535917 -0.039883338 -0.020093989 -0.07490637 -0.08545543 -0.002680535 0.023551011 0.04702315 0.052170962 0.0288406 0.07168921 -0.014808149 -0.06526565 -0.048550636 0.07488123 -0.037552707 0.02359335 0.007524672 0.0052962895 0.05783858 -0.0320972 0.06393046 -0.044790942 0.10196501 -0.01378264 -0.0051805126 0.020009479 0.028203469 0.060680285 -0.1054362 -0.05533328 0.04131381 -0.047766663 0.04742426 -0.12155792 0.076574944 -0.008911174 0.013466007 0.050915536 -0.037149142 -0.09495222 -0.07224496 0.051045105 -0.10337884 -0.07690546 -0.12574875 0.05173784 0.011593158 -0.025059333 -0.10187901 0.023589628 0.00446374 -0.028535493 -0.029335726 -0.008497468 -0.04668414 -0.028154928 0.04084907 0.031500336 0.050728936 0.051920082 0.042452168 0.01060438 -0.013967435 0.056983277 -0.006789103 0.08087081 0.09677337 -0.06827463 -0.053233575 -0.09794561 -0.08845176 0.09213853 0.07168438 0.07922296 -0.009314815 0.09271024 -0.041677527 -0.054274946 -0.022806963 0.020017013 0.04934905 0.010975655 -0.03730926 -0.0009308865 -0.025153227 -0.08937681 -0.050607163
things -0.024073318 0.09427614 0.010974433 -0.09793562 0.057973567 0.029642442 0.02898705 -0.09387479 0.020932278 -0.0035186661 0.0021762808 -0.04655384 -0.0029189303 -0.017478833 0.042568777 0.0027172891 -0.06334859 -0.020701954 0.01777568 0.015545474 0.013390881 -0.01654116 0.027127922 -0.03055023 -0.049936987 -0.0055842553 -0.05794193 0.07923499 -0.0018442919 0.054417484 0.105152674 0.00277566 0.018966831 -0.04670938 -0.037251603 0.021840384 0.042102885 -0.029463626 -0.039676946 -0.037250858 0.0054494883 -0.00558257 0.017052492 0.061963383 -0.041799035 0.013437145 0.053722654 0.031581964 -0.014348222 0.04479531 -0.052703526 -0.028907284 -0.03767849 -0.0545784 0.0059629795 -0.008907285 -0.037963986 0.08638511 0.017837107 -0.0073343916 -0.06649862 -0.038218454 0.054780334 0.0019866899 0.05009748 0.05004844 -0.023469098 0.014043942 -0.0846441 0.004573862 -0.019510688 -0.10610139 0.00019313605 -0.055343818 0.07314333 -0.021942075 0.048321772 -0.042746846 -0.038242165 0.043007538 -0.008573844 -0.011257043 -0.031290863 -0.041652594 0.024621787 0.05061952 -0.06343403 -0.04374926 0.033027254 0.028259747 -0.03180213 -0.034468614 -0.0103919 -0.032410294 0.02264064 0.033540018 0.022061368 0.024417194 -0.013993356 -0.01763176
even -0.07423776 0.046750065 0.017881973 -0.058937535 0.12701152 -0.01871348 -0.08575258 -0.009446334 -0.0011011441 -0.06825698 0.11655835 0.020376883 0.020828636 -0.062408973 0.0014220291 -0.04942593 -0.1065638 0.013067492 0.062402245 0.015396708 0.08438956 0.054784104 0.05064724 -0.050420564 -0.036356717 -0.007723936 -0.010356067 0.019738136 0.017306691 0.043886743 -0.026855376 -0.06823347 -0.00723321 0.033444356 0.020586954 0.025178095 0.0062255687 -0.0047805225 0.017380392 -0.049858328 0.018984225 -0.067811795 0.0017608278 0.04262053 -0.025614738 0.01870913 0.009324497 0.07790018 -0.05817817 -0.039527558 0.025741436 -0.010179501 -0.024877654 -0.059107624 0.040665396 0.019649796 0.07150562 -0.08381334 0.10685873 0.02460593 -0.015204338 -0.05735023 0.02052705 -0.021657215 0.022825748 -0.020679157 -0.10954679 -0.01439732 -0.07849122 -0.017231196 -0.050079934 -0.038417246 0.02734318 0.056225095 -0.046033986 0.03842487 0.023548596 -0.01594868 0.04370461 0.04650582 -0.05441097 -0.046667658 0.020378059 -0.051016126 0.0021381993 0.020125702 0.039716374 -0.024402149 0.08873179 0.030598063 -0.000894691 0.04503211 -0.026463669 0.056311682 -0.09363343 0.019376855 0.042044 -0.041752316 -0.05421569 -0.013435126
came -0.0063679465 0.015021751 -0.072702795 -0.06870277 0.01255342 -0.10775725 -0.016668558 -0.08412393 -0.031273212 0.05338284 -0.036197107 -0.008610182 0.038535606 -0.07415347 -0.031756148 -0.052990332 -0.041696813 0.028796386 0.025797598 -0.06779723 0.14838685 0.04745913 0.017982773 -0.033792496 -0.047657315 -0.035382837 -0.009380389 -0.090184264 -0.010048828 -0.01625278 0.11121454 -0.042943303 0.058113556 -0.027286157 -0.057541713 -0.0055662757 -0.009593235 0.06497173 -0.08906948 -0.02940337 0.05782964 -0.114052966 -0.044792876 -0.031613547 -0.020254986 0.06587753 -0.095405556 0.13231649 0.039497375 -0.083788306 0.083387576 0.007260794 0.0007631716 -0.103971966 -0.039317418 -0.07275119 0.08625893 -0.14061926 0.057116877 0.026283367 -0.101725526 0.03216979 -0.008204402 -0.030231703 0.09113463 -0.0010553414 -0.041677713 -0.055079423 0.009263388 0.0663515 -0.023169825 -0.07535103 -0.07413839 -0.051316157 -0.008995659 0.091953196 -0.015046825 -0.04875737 -0.08591462 -0.020830978 0.090164095 0.067395225 -0.08279039 0.016816985 -0.00075841846 0.052368764 -0.021427412 -0.06483797 0.049428947 0.07112872 -0.04008576 -0.06775823 0.00037884375 0.027185095 -0.013019263 0.021657823 -0.025734777 -0.022572042 0.052419305 0.033547584
away -0.086396955 0.026869478 -0.04199323 -0.036809307 0.009027068 0.061122578 0.089394875 -0.024714883 -0.01320534 0.005493771 0.05267041 0.017012501 0.08765172 0.061704386 -0.015557832 -0.09816324 -0.023243412 -0.011798356 0.06041623 0.0862335 0.013567338 0.0646726 0.03269432 -0.03095897 -0.07535667 -0.050891265 -0.019090839 0.07570287 0.007855631 0.021922674 -0.046490915 0.08700514 -0.035348788 0.009773893 -0.06771529 0.013148383 0.004285179 0.034158528 0.01881463 -0.023894008 0.0011473593 -0.06355584 0.014954703 0.047047574 -0.03934176 0.020186475 0.025286475 -0.029495174 -0.087178625 0.02447511 -0.036854066 0.030590435 0.0017293779 -0.043308083 -0.03824762 -0.017972805 -0.12858662 0.10883863 0.031113008 -0.04068392 -0.016595528 0.03369903 -0.02296675 0.037071615 -0.015160931 0.06495775 -0.029617079 -0.08576093 -0.021564139 0.013379749 0.0310491 -0.08166863 0.058025576 0.023977533 -0.04488456 -0.0033387013 0.057548095 -0.0028459248 0.053414036 -0.00442164 -0.012660878 0.027239474 0.011746376 0.03482165 0.104900725 0.011928327 -0.013449473 -0.045821376 0.003486116 0.0123030795 0.041446567 0.019766655 -0.004399214 0.033490274 -0.039439097 -0.024658049 0.07102655 -0.018135328 -0.05874485 -0.0022349316
time -0.09292455 0.05557753 -0.030843724 0.04412074 0.028879412 -0.037266098 -0.029088149 -0.015980445 0.005748464 -0.038022377 0.06396036 -0.064981736 -0.044531506 -0.091229536 0.010034423 -0.03213907 -0.06608286 0.020601276 0.10063229 0.05351991 0.09897795 0.0026310543 0.083616346 -0.0055357795 -0.08809115 0.0058261193 0.009852422 0.068183415 0.035831515 0.0396514 -0.032577403 -0.052568674 0.0461078 -0.06197863 0.06680541 0.015594578 -0.008393925 0.005405752 0.03603302 0.024873057 0.0016360171 -0.035978384 -0.008959127 0.06458529 -0.06309135 0.029994681 -0.062255364 0.06123006 -0.060956232 0.042351097 0.05460219 0.0015275902 -0.07777712 -0.05228214 0.051358297 -0.038307764 -0.11754287 -0.0726852 0.004912152 0.076990604 -0.060742967 0.021831468 0.032162294 0.044124525 0.03605432 0.045643337 -0.034531165 0.009391369 -0.012405993 -0.021133278 0.01661049 -0.043972526 -0.00013030798 0.037359323 0.037342697 -0.020162283 0.023594249 -0.0048399665 -0.017274007 -0.054505914 0.07943437 -0.014963345 -0.04042352 -0.03508712 0.013806122 0.07685472 -0.0014105493 0.018296821 0.11543788 0.018353682 -0.007341454 -0.044039447 0.02409116 0.08938818 -0.0060974797 -0.059633404 0.058560744 0.010037593 -0.06780991 0.08731856
than 0.0066579557 0.03725916 -0.0929994 -0.02362197 -0.016824625 0.0004977974 -0.010737246 9.8566175e-05 0.013797722 -0.0533262 0.08945735 -0.04530106 -0.015710687 0.016964199 0.03315591 -0.01973755 -0.12924044 0.024413459 -0.048185322 0.098913915 0.00857071 0.061658185 0.10782996 0.034845557 -0.054186642 -0.07248613 0.057720363 -0.024550434 -0.0023632399 0.049685616 -0.0358167 -0.0069491416 -0.057505146 0.033344872 -0.0014880134 0.11239893 -0.14776604 -0.0036372077 -0.008289157 -0.09499181 0.15123169 0.019889316 0.028675985 -0.06813044 -0.061517198 0.0160487 -0.027041296 -0.050072476 -0.090243414 -0.07374811 0.03735223 0.0073181246 0.029148482 -0.030812152 -0.013543785 0.01409464 0.0067520756 -0.01772033 0.05474915 -0.051423166 -0.02110252 -0.03204327 0.10667896 0.004236198 0.042183023 -0.014927047 -0.12728995 -0.046948314 -0.08174415 0.013092597 -0.038782 -0.030169217 0.07121296 0.03997227 0.13024235 0.050102696 -0.029421113 -0.048036546 0.04293201 0.0674326 0.022229178 -0.028839363 -0.07957706 -0.083915316 -0.08299721 0.034417987 -0.07771255 -0.07741364 0.05112654 -0.069527514 7.6335156e-05 -0.027304323 0.026727254 0.08755649 0.032868586 0.029173855 0.009309317 -0.06705589 -0.009541504 0.021284195
would 0.035207085 0.0024726344 -0.053759664 0.0033721894 0.057214856 -0.02150476 -0.06529974 -0.008280297 0.038610525 -0.011180009 0.02775515 -0.06475708 0.06890592 -0.024121966 -0.025157526 -0.034351543 -0.07886282 0.026157925 0.07244148 0.021404833 0.06341705 0.0755204 0.06551012 0.046553385 -0.105401635 0.007024705 -0.05990143 -0.045428887 0.039417177 -0.022014704 0.06191017 0.0035848082 0.094991215 -0.00593056 -0.018455477 0.03826185 0.02594646 0.004207463 -0.06354444 -0.032738395 -0.022987263 -0.036604293 -0.085263595 0.023323609 -0.0678602 0.07421375 -0.029172914 0.054741114 0.0068944693 0.018337434 0.010825599 -0.032701634 0.014832975 -0.0872778 -0.0081373975 -0.019934129 0.08882191 0.05917882 0.06896119 0.02803757 -0.10458685 0.024332372 -0.07274301 -0.00815091 0.014642095 -0.00048062124 0.040893465 0.0024566003 -0.00984084 0.08662677 -0.024574157 -0.101060495 0.009162478 -0.03468866 -0.015888395 0.09623697 0.03925705 -0.00044455926 -0.04579279 0.056048665 0.103400305 -0.09108746 -0.06227605 0.021183532 -0.03265073 0.068720914 -0.02890157 -0.05585256 0.13227199 0.010654559 0.022621 -0.032189693 0.02511589 0.041653704 0.10286455 0.03836953 -0.014930395 -0.0319554 -0.018577024 0.003369781
because -0.09004982 -0.01693078 0.0059700925 0.018687285 0.0017003001 -0.07969374 -0.03832313 -0.08138968 0.090491265 0.13297683 0.021184811 0.012836764 0.08069709 0.02446066 0.07631221 0.01252822 -0.0696484 -0.0351951 -0.0062757065 -0.047590595 0.010142132 -0.01760433 -0.056525093 -0.0021953154 -0.008373605 -0.043068603 -0.08664996 -0.0147361895 0.09730513 -0.030528031 0.117017105 0.012135758 0.06247667 -0.06503612 -0.08885947 -0.017154694 0.0053226575 -0.045886066 0.066305384 -0.076956294 0.07272379 0.032913093 -0.009383749 -0.038572773 -0.047917582 -0.011464547 -0.006090521 0.01974585 -0.070869796 0.020054929 0.0075109694 -0.0943353 0.029069383 -0.0620898 -0.0019122962 -0.050299827 0.012431598 -0.060335334 0.046702236 -0.02506326 -0.07409422 0.019707896 0.03212316 -0.02618548 -0.015764153 -0.02768955 0.027130714 0.10960391 -0.10280723 0.019641828 -0.068383284 -0.08797263 0.016836507 -0.08052062 0.032157615 0.02610716 0.052967142 -0.07195577 -0.05730498 -0.0010335512 0.07283909 0.0056830747 -0.026417952 0.061329324 0.051799975 0.0400477 -0.12600186 0.029753162 0.11128058 -0.009548363 0.09791912 -0.023051813 -0.06363235 0.027062409 -0.002317917 0.048475873 -0.033154305 -0.102201685 0.02466661 0.057799503
ammi -0.010795348 0.0018918131 -0.025319966 -0.058446415 0.030789735 -0.055975653 0.048784535 -0.0060001905 0.04985851 -0.03775062 0.039651293 0.0022695875 0.080552794 0.037902467 0.067875564 0.0049776 -0.028699555 0.015017894 -0.04807097 0.03274642 0.021687318 0.0010840021 -0.061626308 -0.029900875 -0.02372789 0.005162151 -0.026141096 -0.00865569 -0.006735442 0.011989588 -0.021732086 0.040228363 -0.025872178 -0.049446203 -0.030990817 0.042376887 0.045095228 0.025547855 -0.051684625 -0.05713179 -0.010158597 0.004139997 0.08287192 0.06132345 -0.01981118 0.03081061 0.0431327 0.030206503 -0.071761906 0.04360897 -0.03433807 0.007311569 -0.054210667 -0.07389322 0.025321335 -0.08321757 -0.004904417 0.016589804 0.015916428 -0.059564367 -0.05004804 -0.061290853 -0.034912765 0.00936695 0.012908992 0.056545537 -0.00061184424 -0.08518783 0.025082838 0.0063076196 -0.006726901 0.05852506 0.009970469 -0.050921623 -0.005281082 0.025597772 0.0037095768 -0.005126329 0.012087916 0.030369213 -0.018136233 -0.015230997 -0.032814056 -0.0008846482 -0.014144822 0.057322294 -0.03376688 -0.058252286 0.01982569 0.040152233 0.09121397 0.03204992 -0.07126005 -0.012854892 0.0022989041 0.02285337 0.045337286 0.03737218 -0.040336635 0.056615945
made -0.03743507 0.056636427 -0.002236358 -0.013072269 -0.023185104 -0.037614573 0.08352943 -0.018083991 0.040072724 0.019608371 0.04736477 -0.020055037 0.023606673 -0.07084747 0.045141485 0.023569467 -0.09325139 -0.0688255 -0.020454524 -0.048552036 0.08701844 0.038496144 0.010467787 -0.010517784 0.022597492 -0.019672023 -0.099614196 -0.09240825 0.027831487 0.007232763 0.11647377 0.10139776 0.033635516 -0.066082284 -0.025004137 0.08843926 -0.011669995 -0.09403935 0.010190473 0.04700631 -0.051035542 -0.003034236 0.013554223 -0.075239375 -0.07332724 0.04310479 0.06866904 0.0073127304 -0.046630584 -0.025371585 -0.038512982 -0.048428245 -0.043887615 -0.04855093 -0.05471065 -0.03629225 -0.03349194 -0.017568098 0.044448588 0.015528016 -0.018341966 -0.020759122 0.06826164 0.0016703546 0.0586822 -0.008317641 -0.024016563 -0.023480095 -0.09467814 0.008337101 -0.06783453 -0.05340333 0.02285238 -0.10590642 -0.00734616 0.04600397 0.048547674 -0.098889716 -0.025612358 0.019795597 -0.003943014 -0.024654342 -0.03540126 0.048150416 0.0007192781 0.06733605 -0.049617287 -0.08938661 0.07744413 0.06375199 -0.013416809 0.06657705 -0.061565425 -0.011054715 -0.06273439 0.08421219 0.043903966 0.03051684 -0.01697973 -0.027840715
